svm_type c_svc
kernel_type rbf
gamma 0.000802568
nr_class 10
total_sv 774
rho 0.947474 -0.969921 -0.915012 -0.994928 -0.994495 -0.998968 1.00686 -0.975289 -0.998465 -0.989229 -0.958584 -0.993139 -0.993651 -0.999251 1.00799 -0.985705 -0.998397 0.984397 -0.992073 -0.992196 -0.999475 1.00437 -0.976665 -0.996779 -0.994583 -0.99521 -0.999685 1.00807 -0.98392 -0.99831 0.974839 -0.990017 1.00517 0.992245 -0.991589 -0.997176 1.00191 0.989627 -0.990281 1.00261 0.998298 0 -1.00323 -1.00298 -0.998159
label 641 565 898 680 1201 1183 1240 0 1040 1242
nr_sv 38 49 19 35 3 4 1 612 12 1
SV
1 0 0.6347258809844644 0 0.6009444864438207 0 1 0 0 1:1 3:1 6:1 16:1 55:1 109:1 126:1 153:1 155:1 281:1 366:1 705:1 911:1 1198:1 
1 0.9542878050314988 1 0 0.2423877919924073 0.147453043128711 1 0.5206000889241734 0 1:1 3:1 6:1 18:1 42:1 66:1 80:1 92:1 93:1 271:1 344:1 707:1 1090:1 1092:1 
1 0.9100457179865525 1 0 0 0 1 0.1512993395639363 0 1:1 3:1 6:1 15:1 28:1 29:1 33:1 42:1 43:1 60:1 117:1 270:1 371:1 705:1 
1 1 1 0.2122267207849587 0 0.03483451022352249 1 0.7770958896843285 0 13:1 16:1 41:1 43:1 46:1 55:1 119:1 128:1 286:1 362:1 375:1 603:1 606:1 705:1 
1 0 1 0 0 0 1 0.03936290017438198 0.1483980336863543 1:1 3:1 6:1 42:1 43:1 124:1 169:1 271:1 302:1 306:1 355:1 374:1 574:1 705:1 
1 0.03161277084094534 0 0 0 0 1 0.05895560946275408 0 1:1 3:1 6:1 16:1 26:1 31:1 55:1 109:1 144:1 305:1 311:1 368:1 577:1 705:1 
1 0 1 0.09128555405542649 0.2192505727993816 0.05120384444360856 1 0.2229041103156714 0 1:1 5:1 6:1 16:1 18:1 47:1 55:1 263:1 264:1 349:1 387:1 685:1 688:1 723:1 
1 0 1 0 0.1523687668901532 0.0822058432012224 1 0.2537467558467218 0 1:1 5:1 6:1 16:1 18:1 26:1 55:1 61:1 173:1 369:1 372:1 723:1 1055:1 1066:1 
1 0.3107073727198651 0.6544378567844861 0 0.3961872844478043 0.151750654988296 1 0 0 1:1 3:1 5:1 6:1 55:1 66:1 80:1 92:1 133:1 135:1 136:1 341:1 1119:1 1244:1 
1 0.8718653102882022 1 0.1245077998264387 0.2437746963088667 0 1 0.3470876934602027 0 3:1 5:1 6:1 10:1 32:1 37:1 55:1 203:1 204:1 359:1 361:1 705:1 899:1 905:1 
1 0.1809682996895096 0.5082764599698437 0 0 0 1 0.03904694184471261 0 1:1 3:1 6:1 12:1 16:1 55:1 86:1 126:1 192:1 193:1 194:1 395:1 624:1 911:1 
1 0.7328839818124628 1 0 0 0 1 0.06671792350886262 0 1:1 3:1 6:1 55:1 69:1 85:1 281:1 534:1 561:1 564:1 847:1 1119:1 1195:1 1199:1 
1 0.3387823942221681 1 0.3979216007115433 0 0 1 0.4126819875669639 0.05048570171033781 1:1 6:1 42:1 47:1 65:1 93:1 271:1 310:1 719:1 723:1 759:1 777:1 870:1 871:1 
1 1 1 0.2372415908642798 0 0 1 1 0.110305269408226 6:1 10:1 24:1 38:1 55:1 159:1 534:1 784:1 
1 1 1 0.07419028800834836 0 0 1 1 0.03531909563882743 1:1 6:1 8:1 13:1 55:1 477:1 593:1 594:1 597:1 691:1 793:1 1095:1 1144:1 1145:1 
1 0.2048464511236261 1 0.1453283124191415 0 0 1 0.2950323126110352 0 1:1 6:1 16:1 19:1 25:1 34:1 55:1 86:1 87:1 237:1 451:1 474:1 661:1 875:1 
1 0.2336785250080842 0.5778020857446338 0 0 0 1 0.1132920781295127 0 1:1 3:1 6:1 12:1 16:1 18:1 55:1 63:1 71:1 118:1 154:1 160:1 276:1 707:1 
1 0.7690054165098348 1 0.6004657792442503 0.0880431510489206 0.02886765127965319 1 0.7499134963799531 0.05911363836347486 1:1 3:1 8:1 41:1 42:1 53:1 97:1 127:1 378:1 507:1 510:1 558:1 562:1 707:1 
1 0.4287173367809868 1 0 0 0 1 0.3043348493900767 0 1:1 3:1 6:1 24:1 29:1 55:1 58:1 215:1 304:1 307:1 453:1 540:1 638:1 639:1 
1 1 1 0.09602194591536456 0.2906501511000929 0.05214229349713479 1 1 0 1:1 2:1 3:1 14:1 22:1 40:1 43:1 151:1 279:1 280:1 540:1 571:1 676:1 683:1 714:1 
1 0.8190317003104903 1 0.2694777088354133 0 0 1 0 0 1:1 3:1 12:1 16:1 31:1 35:1 41:1 55:1 205:1 448:1 465:1 584:1 707:1 1032:1 
1 1 1 0.08566606801149604 0.1619436638071008 0.04285323081083603 1 0.4478206737464809 0 1:1 2:1 5:1 52:1 55:1 57:1 61:1 65:1 85:1 103:1 182:1 472:1 502:1 638:1 1186:1 
1 0.885821847441104 1 0 0.1042755368707012 0 1 0.8475427509666413 0 1:1 2:1 5:1 17:1 19:1 52:1 55:1 58:1 65:1 103:1 171:1 454:1 502:1 624:1 1186:1 
1 0.04740461069203349 1 0.300829822899162 0.2244475856507922 0.09963090132638336 1 0.1808299521631937 0.1194429949976863 1:1 2:1 5:1 17:1 19:1 42:1 51:1 52:1 65:1 103:1 167:1 459:1 502:1 691:1 1186:1 
1 0.08648351203658948 1 0 0 0 1 0 0 1:1 3:1 6:1 16:1 22:1 34:1 55:1 68:1 86:1 236:1 474:1 530:1 634:1 875:1 
1 0.1625439030183838 1 0 0 0 1 0.6577688531067463 0.3948920695686041 1:1 3:1 6:1 8:1 55:1 97:1 103:1 116:1 154:1 160:1 215:1 282:1 522:1 723:1 
1 1 1 0 0 0.04953017620292724 1 0.2620748319495964 0 1:1 2:1 3:1 4:1 7:1 42:1 51:1 256:1 257:1 450:1 458:1 586:1 717:1 828:1 837:1 
1 0.579248985139297 1 0 0.07342696579761127 0 1 0.1878801476254608 0 1:1 2:1 3:1 4:1 7:1 42:1 54:1 74:1 252:1 443:1 450:1 550:1 717:1 828:1 837:1 
1 0.5270643158787468 1 0.1260843355005709 0 0 1 0.2325670169170455 0 1:1 2:1 3:1 4:1 7:1 42:1 54:1 70:1 110:1 145:1 450:1 572:1 717:1 828:1 837:1 
1 0 1 0 0.07848407823617187 0 1 0 0 1:1 3:1 4:1 7:1 11:1 26:1 42:1 240:1 243:1 440:1 450:1 642:1 717:1 828:1 837:1 
1 0 0.624757716516572 0.04757870725068494 0.2273921085322455 0 1 0 0 1:1 3:1 4:1 7:1 11:1 42:1 51:1 232:1 234:1 439:1 450:1 717:1 720:1 828:1 837:1 
1 0.9502534091936035 1 0 0.08216047527814258 0 1 0.08905819652811173 0 1:1 3:1 4:1 7:1 11:1 12:1 36:1 219:1 223:1 442:1 450:1 717:1 775:1 828:1 837:1 
1 0.4893822727253317 1 0 0 0 1 0.265099020156468 0 1:1 2:1 4:1 7:1 13:1 42:1 51:1 200:1 256:1 257:1 458:1 514:1 572:1 791:1 805:1 
1 0.708926505733703 1 0.0569476985115587 0.1007111416710199 0.06097611306681054 1 0.4706143999941059 0 1:1 2:1 4:1 7:1 13:1 42:1 54:1 74:1 200:1 252:1 443:1 514:1 576:1 791:1 805:1 
1 0.7477206707058281 1 0 0 0.1155780248993771 1 0.4104739535981979 0.02648785473669908 1:1 2:1 4:1 7:1 13:1 42:1 54:1 70:1 110:1 145:1 200:1 514:1 720:1 791:1 805:1 
1 0.1152003971477416 1 0 0.234418390335045 0 1 0.07076592508307961 0.05555534188979008 1:1 4:1 7:1 11:1 13:1 26:1 42:1 200:1 240:1 243:1 440:1 514:1 678:1 791:1 805:1 
1 0 1 0.08887939481743175 0.04873197537842004 0 1 0 0 1:1 4:1 7:1 11:1 13:1 42:1 51:1 200:1 232:1 234:1 439:1 514:1 625:1 791:1 805:1 
1 0.9135164879634106 1 0.0453466723439306 0.4304011774113023 0.08297371293151726 1 0.5254323013015846 0 1:1 4:1 7:1 11:1 12:1 13:1 36:1 200:1 219:1 223:1 442:1 514:1 738:1 791:1 805:1 
-0.9600937230053278 0.5568871130797487 1 0 0 0.180307353968209 1 0.4650139481219704 0.1137197981295165 1:1 6:1 13:1 34:1 40:1 48:1 83:1 92:1 125:1 140:1 183:1 186:1 281:1 609:1 
-1 0 1 0.0995760448004257 0.7910610028829245 0 1 0 0 1:1 2:1 3:1 14:1 34:1 42:1 48:1 98:1 109:1 125:1 153:1 155:1 281:1 366:1 638:1 
-0 0 0 0 0 0 1 0 0 1:1 3:1 6:1 34:1 40:1 57:1 83:1 92:1 93:1 125:1 140:1 183:1 186:1 644:1 
-1 0 0.7419633385326676 0 0 0 1 0.09607150154069259 0 1:1 3:1 6:1 50:1 83:1 86:1 140:1 183:1 186:1 395:1 785:1 1026:1 1030:1 1044:1 
-0 0 0 0 0 0 1 0 0 1:1 3:1 6:1 49:1 63:1 83:1 140:1 183:1 186:1 426:1 825:1 942:1 959:1 965:1 
-1 0.2900098837490631 1 0.08753903352643629 0 0 1 0 0 1:1 2:1 3:1 4:1 42:1 63:1 192:1 193:1 194:1 395:1 429:1 627:1 942:1 959:1 965:1 
-0.7802829969450109 0.4812158723868432 1 0 0.05710077233621456 0 1 0.2993402006569414 0 1:1 2:1 3:1 4:1 30:1 40:1 63:1 207:1 209:1 210:1 367:1 429:1 686:1 902:1 903:1 
-0 0 0.1860005853728187 0.2094427319523576 0 0 1 0.1744767743810113 0 1:1 3:1 6:1 8:1 64:1 83:1 140:1 149:1 183:1 186:1 446:1 872:1 894:1 975:1 
-0.1948242788320983 0 0 0 0 0 1 0 0 1:1 3:1 6:1 24:1 79:1 83:1 129:1 140:1 183:1 186:1 422:1 726:1 730:1 761:1 
-0.9392530935333215 1 1 0 0.08157706379281734 0 1 0.04886798067637654 0 1:1 2:1 3:1 4:1 24:1 45:1 78:1 137:1 231:1 235:1 422:1 446:1 549:1 726:1 730:1 
-0.1076377164080218 0 0 0.04679075152522783 0 0 1 0 0 1:1 3:1 6:1 43:1 77:1 83:1 101:1 140:1 183:1 186:1 364:1 645:1 647:1 1005:1 
-0.2378880046067021 0 0 0 0 0 1 0 0 1:1 3:1 6:1 28:1 33:1 43:1 60:1 83:1 84:1 117:1 140:1 183:1 186:1 906:1 
-0.5592228571428571 1 1 0 0 0 1 0 0 1:1 2:1 3:1 4:1 27:1 33:1 36:1 43:1 60:1 95:1 117:1 129:1 255:1 258:1 651:1 
-0.8278738792718633 0 1 0 0 0 1 0 0 1:1 2:1 3:1 4:1 23:1 27:1 37:1 42:1 43:1 101:1 262:1 364:1 624:1 645:1 647:1 
-1 0.913280547618831 1 0.03349268303691415 0.09317379491701502 0.07569103608485951 1 0.5653051146006565 0.07998159543655955 2:1 4:1 13:1 23:1 27:1 37:1 42:1 43:1 85:1 128:1 251:1 262:1 362:1 623:1 661:1 
-0.4407771428571429 0 1 0 0 0 1 0 0 1:1 2:1 3:1 4:1 23:1 27:1 37:1 42:1 43:1 101:1 262:1 355:1 585:1 588:1 605:1 
-1 0.4646644262768779 0.3622686668175878 0.0959577674274166 0 0 1 0 0.03671730280823794 3:1 6:1 7:1 53:1 83:1 94:1 128:1 139:1 140:1 183:1 186:1 411:1 569:1 852:1 
-1 0.5353355737231221 0 0 0 0 1 0 0 1:1 3:1 6:1 7:1 83:1 101:1 114:1 140:1 183:1 186:1 432:1 525:1 529:1 1016:1 
-1 0.4088316720117674 1 0 0.05674560635648533 0 1 0.1112004490086537 0 1:1 2:1 3:1 4:1 7:1 36:1 124:1 143:1 149:1 339:1 345:1 392:1 398:1 432:1 691:1 
-1 0.6102608539294697 1 0.06330444433788954 0.1748212208957009 0.02812828606291812 1 0.160449693325081 0 1:1 2:1 4:1 7:1 17:1 19:1 55:1 78:1 138:1 333:1 334:1 339:1 340:1 485:1 627:1 
-1 0.3579318369674981 1 0 0 0.05650369396632807 1 0.26158017982249 0 1:1 2:1 4:1 7:1 17:1 19:1 30:1 55:1 78:1 138:1 326:1 339:1 356:1 485:1 655:1 
-1 0.8491100002175306 1 0 0.09758350178566885 0 1 0.264178854379632 0 1:1 2:1 3:1 4:1 31:1 55:1 57:1 109:1 144:1 296:1 297:1 311:1 393:1 577:1 638:1 
-1 0.1125602814380262 1 0.1115967467080005 0.05728920875533438 0 1 0 0.04195380410446542 1:1 2:1 3:1 5:1 20:1 23:1 28:1 34:1 36:1 52:1 123:1 273:1 275:1 430:1 609:1 
-0 0.4517693039475933 1 0 0.3177372776634087 0.04851923873983662 1 0.0872006476589031 0 1:1 2:1 3:1 4:1 5:1 23:1 27:1 30:1 36:1 165:1 249:1 250:1 353:1 686:1 743:1 
-0.6462531231602766 0 0 0.06597699986429656 0.07475379906164814 0 1 0 0 1:1 3:1 5:1 6:1 34:1 83:1 140:1 183:1 186:1 220:1 222:1 428:1 768:1 1091:1 
-0.5578242689321231 0 0 0 0.1023466455414851 0 1 0 0 1:1 3:1 5:1 6:1 83:1 88:1 89:1 117:1 130:1 140:1 183:1 186:1 853:1 1196:1 
-1 0.7099901162509369 1 0.1527495876517486 0.4567354532548471 0.1754040654121796 1 0.2384478159005199 0 1:1 2:1 3:1 4:1 5:1 18:1 42:1 88:1 89:1 117:1 131:1 428:1 628:1 883:1 895:1 
-0.5391546523582516 0 0 0.03495720099099734 0.2065353534527981 0 1 0 0 1:1 3:1 5:1 6:1 57:1 83:1 92:1 125:1 140:1 146:1 183:1 186:1 1158:1 1245:1 
-1 0.6810864381529508 1 0.1029158321646797 0.2519494996308592 0.107001062264378 1 0 0 1:1 2:1 3:1 4:1 5:1 45:1 57:1 98:1 125:1 130:1 146:1 262:1 590:1 644:1 717:1 
-0.3920574258564678 0.6238617920232504 1 0 0 0 1 0 0 1:1 2:1 3:1 4:1 40:1 46:1 58:1 100:1 174:1 281:1 580:1 608:1 614:1 810:1 833:1 
-1 1 1 0.2153986003006854 0 0 1 0.7450324974682181 0.1149648679885823 2:1 4:1 10:1 12:1 27:1 33:1 37:1 38:1 42:1 93:1 473:1 479:1 604:1 697:1 868:1 
-1 1 1 0.1381363937142175 0.06135388413823471 0 1 0.8104382449198284 0 1:1 2:1 12:1 14:1 19:1 24:1 25:1 55:1 477:1 547:1 548:1 740:1 762:1 1095:1 1200:1 
-1 0.934946872052633 1 0.07091828003296104 0.1526488323745943 0.04041419608059408 1 0.6717848560725306 0 1:1 2:1 3:1 4:1 46:1 49:1 58:1 86:1 100:1 174:1 580:1 608:1 614:1 695:1 833:1 
-1 0.4236816738677914 1 0.2003958837306153 0.06876330029080152 0.05275741711310415 1 0.4843219225304961 0.0484220474784906 1:1 2:1 13:1 30:1 42:1 62:1 63:1 91:1 621:1 622:1 650:1 767:1 783:1 1047:1 1050:1 
-1 0.3460800407905775 1 0.07673368996812664 0 0 1 0.3905658796956138 0 1:1 2:1 3:1 12:1 17:1 21:1 22:1 55:1 105:1 113:1 174:1 281:1 723:1 763:1 1006:1 
-1 0.680359198600303 1 0 0 0.02939451669366678 1 0.431619541796869 0 1:1 2:1 3:1 14:1 23:1 27:1 46:1 55:1 82:1 281:1 462:1 619:1 1116:1 1118:1 1121:1 
-0 1 1 0.04863078710898372 0 0 1 0.5714644061402353 0 2:1 3:1 4:1 10:1 23:1 27:1 34:1 36:1 46:1 71:1 93:1 469:1 605:1 973:1 976:1 
-1 0 0 0 0 0 1 0 0 1:1 3:1 6:1 34:1 59:1 63:1 83:1 103:1 139:1 140:1 160:1 188:1 282:1 657:1 
-1 0.3189135618470492 1 0.07940379584956497 0.094693181927298 0.07757566701859479 1 0.4373102248571116 0.05507365883562584 1:1 2:1 3:1 4:1 8:1 18:1 27:1 33:1 42:1 71:1 118:1 156:1 160:1 740:1 760:1 
-1 0.09515577612494321 1 0.1399936906259196 0 0 1 0.486423216902779 0.09600928836250981 1:1 2:1 3:1 8:1 23:1 28:1 39:1 42:1 149:1 165:1 196:1 269:1 527:1 706:1 711:1 
-1 0.7949058257442579 1 0.0566055516696892 0.2119799457756945 0.08330149366273133 1 0.6223996078270961 0 1:1 2:1 8:1 13:1 36:1 39:1 74:1 75:1 78:1 151:1 291:1 509:1 527:1 604:1 664:1 
-0.8168568370905354 0.2552950047332003 1 0.2004503742588405 0 0 1 0.320426756771368 0.05669866534024477 1:1 2:1 8:1 36:1 39:1 61:1 75:1 78:1 196:1 291:1 460:1 527:1 619:1 637:1 640:1 
-1 1 1 0.04251413199679605 0 0 1 0 0 1:1 2:1 3:1 4:1 8:1 12:1 27:1 33:1 42:1 68:1 118:1 160:1 434:1 470:1 605:1 
-1 0.1275922919490336 1 0.1689344397284835 0 0 1 0.547819113202457 0.1193211589680301 1:1 3:1 6:1 8:1 53:1 83:1 90:1 97:1 103:1 140:1 188:1 378:1 507:1 1016:1 
-1 0.4709080970834316 1 0.2319533917449155 0.1893905066128942 0 1 1 0.1483337401475238 1:1 6:1 8:1 13:1 70:1 83:1 100:1 103:1 115:1 140:1 188:1 314:1 478:1 1049:1 
-1 0 0 0 0 0 1 0.3848775149982701 0 1:1 3:1 6:1 24:1 58:1 83:1 103:1 115:1 140:1 188:1 304:1 307:1 540:1 904:1 
-1 0.06505312794736695 0.7097674092769259 0.05841549359604305 0.2209615385983628 0 1 1 0.02938329928776259 1:1 6:1 13:1 43:1 83:1 103:1 121:1 140:1 151:1 188:1 279:1 280:1 514:1 1115:1 
-1 0 0 0 0 0 1 0 0.05052385859533388 1:1 3:1 6:1 30:1 31:1 83:1 96:1 103:1 140:1 188:1 214:1 303:1 465:1 1163:1 
-1 0.4403128174859025 1 0.1672156716877674 0.1807986099549129 0.04500197293259989 1 0.3233830567441984 0.008896914517116911 1:1 2:1 3:1 5:1 35:1 52:1 55:1 104:1 112:1 190:1 465:1 502:1 584:1 686:1 1032:1 
-1 -1 1 0 0.8549897200912965 0.3542839210396407 1 1 0 1:1 2:1 4:1 13:1 18:1 34:1 55:1 57:1 80:1 82:1 92:1 93:1 98:1 125:1 661:1 
-1 -1 1 0.1639262127122407 0 0 1 0.3520723114286851 0.153871235971514 2:1 3:1 4:1 8:1 10:1 42:1 60:1 78:1 231:1 235:1 352:1 423:1 638:1 850:1 851:1 
-1 -1 1 0.2561495907480186 0.2481565716557209 0 1 0.8872611139115761 0.03647307213403129 1:1 2:1 3:1 4:1 8:1 30:1 36:1 78:1 129:1 231:1 235:1 422:1 423:1 691:1 771:1 
-1 -1 1 0 0 0 1 0.2467234252790333 0 2:1 3:1 4:1 8:1 10:1 36:1 60:1 78:1 231:1 235:1 365:1 423:1 627:1 739:1 741:1 
-1 -1 1 0.05471641125877635 0 0 1 0.6597828296482973 0 2:1 3:1 4:1 10:1 24:1 55:1 58:1 95:1 137:1 255:1 258:1 370:1 693:1 698:1 1119:1 
-1 -1 1 0 0 0 1 0.2183888235800733 0.04831647070495128 2:1 3:1 4:1 7:1 55:1 101:1 141:1 325:1 327:1 328:1 351:1 424:1 525:1 529:1 661:1 
-1 -1 1 0.131702337178023 0.1015502639255912 0 1 0.5268963514857992 0 1:1 2:1 3:1 4:1 7:1 55:1 101:1 138:1 331:1 335:1 348:1 424:1 525:1 529:1 826:1 
-1 -1 1 0.07304342330004773 0.2542350861754515 0 1 0.1491809515286979 0 1:1 2:1 3:1 4:1 12:1 27:1 31:1 33:1 48:1 49:1 66:1 416:1 607:1 611:1 620:1 
-1 -1 1 0.1622913554757802 0.53319691720191 0.09345576941588352 1 0.8660154608093905 0 1:1 2:1 4:1 5:1 13:1 23:1 27:1 45:1 165:1 226:1 227:1 229:1 358:1 549:1 743:1 
-1 -1 1 0.1973412367281847 0.5670979590951207 0.3795811528829166 1 0.6347798870974934 0 1:1 2:1 3:1 4:1 5:1 18:1 53:1 55:1 198:1 199:1 409:1 427:1 604:1 883:1 895:1 
-1 -1 1 0 0 0 1 0 0 1:1 2:1 3:1 4:1 12:1 27:1 33:1 46:1 50:1 93:1 608:1 614:1 630:1 847:1 868:1 
-1 -1 1 0.1630551624535223 0.1921632256812142 0.07799987477770612 1 1 0 1:1 2:1 12:1 13:1 14:1 24:1 40:1 477:1 547:1 548:1 628:1 762:1 1095:1 1144:1 1145:1 
-1 -1 1 0.1617853519549275 0.1106745441382445 0 1 1 0.06536194948330566 6:1 9:1 40:1 271:1 281:1 539:1 556:1 560:1 563:1 749:1 778:1 1241:1 1246:1 
-1 -1 1 0 0 0 1 0 0 1:1 2:1 3:1 4:1 12:1 27:1 33:1 46:1 50:1 93:1 608:1 614:1 630:1 847:1 868:1 
-1 -1 1 0.6271048741176282 0.145075856440119 0 1 1 0.1653245846559638 10:1 29:1 38:1 41:1 42:1 60:1 93:1 479:1 582:1 679:1 681:1 705:1 769:1 940:1 
-1 -1 1 0.3367400775360471 0.5390438362128893 0 1 0.9294346209238465 0.08551014914986237 1:1 3:1 11:1 26:1 39:1 46:1 59:1 63:1 608:1 614:1 694:1 696:1 821:1 823:1 847:1 
-1 -1 1 0.4585141619858821 0.3979442916792465 0 1 1 0.3271586350926457 6:1 9:1 24:1 94:1 539:1 778:1 901:1 
-1 -1 1 0 0 0.04143686512424932 1 0.5294642243071073 0 1:1 2:1 4:1 13:1 23:1 27:1 28:1 33:1 36:1 46:1 82:1 85:1 93:1 139:1 549:1 
-1 -1 1 0.2136298045509215 0.0558717277031956 0.05324241675960376 1 1 0.1179839028077259 1:1 2:1 4:1 8:1 12:1 13:1 27:1 33:1 35:1 45:1 68:1 317:1 434:1 537:1 678:1 
-1 -1 -1 0.06021075723202385 0.4956973737264493 0.2510368786119104 1 0.3983351409533293 0.05537586911736517 1:1 2:1 3:1 4:1 18:1 36:1 66:1 80:1 86:1 92:1 435:1 609:1 1026:1 1030:1 1044:1 
-1 -1 -1 0.1577087656442673 0.1423221040193436 0 1 0.5160589304325943 0 1:1 2:1 3:1 4:1 8:1 40:1 149:1 207:1 209:1 210:1 423:1 426:1 749:1 872:1 894:1 
-1 -1 -1 0.1904077310146443 0.2125380645825095 0.04507340813649581 1 0.3748787465698366 0 1:1 3:1 4:1 7:1 23:1 28:1 37:1 40:1 53:1 134:1 139:1 262:1 403:1 569:1 678:1 
-1 -1 -0.4897990665724395 0.03642447582645639 0 0 1 0 0 1:1 2:1 4:1 7:1 12:1 42:1 47:1 124:1 217:1 354:1 392:1 398:1 420:1 424:1 638:1 
-1 -1 -0.3134346765990849 0.3632604489444985 0.3022265190519984 0.03539824297284543 1 0.9354481476139557 0.1029507548176023 1:1 5:1 6:1 34:1 47:1 83:1 140:1 183:1 186:1 273:1 275:1 387:1 742:1 1123:1 
-1 -1 -0.8996635163444541 0 0.2538119834078537 0.1204942056007452 1 0.2958592902213442 0 1:1 2:1 4:1 5:1 18:1 27:1 33:1 47:1 55:1 156:1 253:1 387:1 685:1 688:1 705:1 
-1 -1 -1 0 0.3262919500186811 0.03655659174874823 1 0 0 1:1 2:1 3:1 4:1 5:1 23:1 28:1 34:1 56:1 165:1 220:1 222:1 427:1 642:1 743:1 
-1 -1 -0.7411497997528773 0.05713911177609287 0.3592697432182962 0.1292778690262727 1 0.4439189904761589 0 1:1 2:1 4:1 5:1 18:1 55:1 61:1 88:1 89:1 117:1 131:1 369:1 638:1 1055:1 1066:1 
-1 -1 -1 0.1679092627410731 0.8038021896523477 0.1292150637979291 1 0.5501418217504207 0 1:1 4:1 5:1 11:1 12:1 13:1 36:1 123:1 148:1 150:1 363:1 376:1 826:1 1160:1 1162:1 
-1 -1 -0.1558842460435433 0 0 0 1 0 0 1:1 2:1 4:1 42:1 46:1 47:1 104:1 281:1 608:1 614:1 705:1 776:1 833:1 1159:1 1161:1 
-1 -1 -1 0.1934771099840115 0 0 1 0.02177804633051161 0 1:1 2:1 4:1 12:1 27:1 33:1 42:1 47:1 65:1 93:1 310:1 650:1 719:1 777:1 868:1 
-1 -1 -0 0 0 0 1 0.2595589193621232 0 1:1 2:1 4:1 17:1 19:1 22:1 30:1 55:1 86:1 105:1 113:1 172:1 723:1 770:1 780:1 
-1 -1 -0.9413536767608122 0.2130837536617553 0.1830693406998425 0 1 0.9383142057325971 0.04084425180769272 2:1 4:1 10:1 22:1 32:1 38:1 42:1 60:1 86:1 105:1 113:1 172:1 479:1 582:1 707:1 
-1 -1 -0.4389278518623823 0 0 0 1 0 0 2:1 4:1 10:1 27:1 29:1 33:1 38:1 42:1 63:1 85:1 139:1 705:1 784:1 912:1 916:1 
-1 -1 -0 0 0 0 1 0 0 1:1 2:1 4:1 23:1 27:1 38:1 42:1 46:1 63:1 217:1 652:1 656:1 705:1 758:1 974:1 
-1 -1 -0 0.3255006780566539 0.2779035102373155 0 1 0.1318983887287941 0.0926930717032322 1:1 4:1 11:1 42:1 47:1 65:1 281:1 587:1 592:1 691:1 764:1 776:1 1114:1 1120:1 1122:1 
-1 -1 -1 0 0.06177970247253189 0.09216588049834502 1 0.5436696693068874 0 1:1 2:1 4:1 13:1 36:1 46:1 281:1 608:1 614:1 627:1 773:1 833:1 1093:1 1094:1 1096:1 
-1 -1 -0 0 0 0 1 0.2889973194577099 0 1:1 2:1 3:1 4:1 20:1 23:1 28:1 42:1 58:1 86:1 100:1 172:1 580:1 638:1 779:1 
-1 -1 -1 0 0 0 1 0.5261244481212382 0.07315398763119824 2:1 4:1 10:1 27:1 29:1 33:1 38:1 42:1 63:1 85:1 139:1 705:1 784:1 912:1 916:1 
-1 -1 -0.404779756128113 0.3091530811065993 0 0 1 0.4418705504058583 0 1:1 2:1 14:1 23:1 27:1 46:1 47:1 55:1 82:1 104:1 281:1 461:1 705:1 856:1 1197:1 
-1 -1 -1 0 0.1899696355118825 0.03370967487266115 1 0.7234401374128031 0 1:1 2:1 14:1 23:1 27:1 46:1 55:1 57:1 58:1 61:1 82:1 281:1 455:1 740:1 1165:1 
-1 -1 -0.4080224662905284 0 0 0 1 0 0 1:1 2:1 4:1 17:1 19:1 23:1 27:1 42:1 46:1 58:1 71:1 93:1 457:1 638:1 1004:1 
-1 -1 -0.3552038928924598 0 0 0 1 0.1469352575089215 0.05537586911736126 1:1 2:1 3:1 4:1 23:1 28:1 36:1 46:1 58:1 71:1 86:1 97:1 528:1 609:1 939:1 
-1 -1 -0 0 0 0 1 0 0 1:1 2:1 4:1 17:1 19:1 22:1 55:1 68:1 86:1 236:1 451:1 528:1 723:1 856:1 900:1 
-1 -1 -0.6711551541976444 0 0.05345231568406704 0 1 0 0 1:1 2:1 3:1 4:1 22:1 34:1 42:1 63:1 68:1 139:1 175:1 236:1 282:1 530:1 549:1 
-1 -1 -0 0 0 0 1 0.3951633979544395 0.03047146423649432 1:1 2:1 4:1 8:1 23:1 27:1 42:1 47:1 104:1 165:1 269:1 471:1 691:1 712:1 715:1 
-1 -1 -0.6953538234671295 0.2579761301959226 0.1092531538098957 0 1 1 0.2242655933531188 1:1 6:1 8:1 38:1 73:1 83:1 103:1 140:1 149:1 188:1 196:1 545:1 711:1 787:1 
-1 -1 -0.3370006269196393 0.2869584261916308 0 0 1 0.0313327930084437 0.123602336987168 1:1 2:1 8:1 17:1 19:1 39:1 42:1 75:1 78:1 291:1 452:1 527:1 677:1 682:1 707:1 
-1 -1 -0.4046452553129178 0 0 0 1 0.7929251165751483 0 1:1 2:1 8:1 14:1 30:1 36:1 38:1 75:1 78:1 97:1 291:1 521:1 545:1 633:1 810:1 
-1 -1 -0 0.1423052978213788 0 0 1 0.3526070245923918 0.08490271565948908 1:1 2:1 8:1 14:1 35:1 38:1 42:1 68:1 251:1 317:1 449:1 521:1 610:1 612:1 826:1 
-1 -1 -0.7919865007003626 0.0350715292084307 0.04020022367750745 0 1 0.3753277838439166 0 1:1 2:1 8:1 12:1 14:1 17:1 19:1 35:1 40:1 68:1 317:1 475:1 521:1 557:1 634:1 
-1 -1 -0.4789509552368735 0.1000527652716745 0 0.04676696153528375 1 0.2255594027801961 0.04377382845258324 1:1 2:1 3:1 4:1 8:1 20:1 23:1 28:1 42:1 53:1 97:1 378:1 513:1 543:1 624:1 
-1 -1 -0.2499493678639693 0 0 0.06976252971091021 1 0.2570745299713623 0 1:1 2:1 4:1 17:1 19:1 22:1 24:1 53:1 55:1 290:1 463:1 532:1 676:1 683:1 723:1 
-1 -1 -1 0 0 0 1 0.2329860045909539 0 1:1 2:1 3:1 4:1 12:1 22:1 24:1 36:1 96:1 283:1 444:1 532:1 550:1 676:1 683:1 
-1 -1 -0.222739367054769 0.1033606753228862 0.188412190229478 0.01054269348785302 1 0.7997959362980637 0.0725902571166947 1:1 2:1 8:1 14:1 19:1 25:1 42:1 74:1 151:1 287:1 288:1 452:1 504:1 664:1 691:1 
-1 -1 -1 -1 1 0.4516140437973902 1 1 0.4516140437973902 3:1 5:1 10:1 41:1 42:1 122:1 238:1 241:1 246:1 357:1 410:1 707:1 766:1 774:1 
-1 -1 -1 -1 1 0.25 1 1 0.25 1:1 8:1 41:1 47:1 51:1 65:1 67:1 87:1 177:1 438:1 461:1 589:1 591:1 849:1 
-1 -1 -1 -1 1 0.2983859562026098 1 1 0.2983859562026098 1:1 8:1 41:1 47:1 54:1 65:1 67:1 87:1 177:1 445:1 461:1 573:1 575:1 972:1 
-1 -1 -1 -1 -0.942569312240613 0.394495894282374 1 1 0.3332325342475075 1:1 2:1 5:1 13:1 14:1 18:1 48:1 80:1 82:1 98:1 157:1 158:1 363:1 744:1 1243:1 
-1 -1 -1 -1 -0.4988470767030886 0.05021683299035327 1 1 0.2339353044311414 1:1 3:1 4:1 5:1 11:1 32:1 74:1 109:1 153:1 155:1 284:1 318:1 343:1 366:1 1117:1 
-1 -1 -1 -1 -1 0.1319736652407189 1 1 0.2377225509317407 1:1 3:1 4:1 5:1 11:1 109:1 153:1 155:1 238:1 241:1 246:1 366:1 402:1 772:1 1046:1 
-1 -1 -1 -1 -0.5585836110562984 0.4233136074865539 1 1 0.1951096103896104 1:1 4:1 5:1 11:1 13:1 18:1 32:1 80:1 82:1 92:1 189:1 191:1 377:1 658:1 1194:1 
-1 -1 -1 -1 -1 -1 1 1 1 1:1 2:1 4:1 5:1 13:1 18:1 53:1 80:1 82:1 92:1 198:1 199:1 386:1 654:1 1239:1 
-0 -0.7705449609496138 -0 -0 -0 -0 -0 0 0 1:1 3:1 6:1 36:1 83:1 140:1 183:1 186:1 281:1 299:1 366:1 586:1 1224:1 1237:1 
-0.03425865732207289 -1 -0.06319702218398637 -0 -0 -0 -0 0 0 1:1 2:1 3:1 4:1 34:1 42:1 57:1 93:1 98:1 109:1 125:1 153:1 155:1 366:1 619:1 
-0.5098216787546661 -0 -0 -0 -0 -0 -0 0 0 1:1 3:1 6:1 36:1 93:1 109:1 153:1 155:1 271:1 344:1 366:1 586:1 1090:1 1092:1 
-0.1552246566605922 -0 -0 -0 -0 -0 -0 0 0 1:1 3:1 16:1 41:1 43:1 76:1 109:1 153:1 155:1 366:1 375:1 603:1 606:1 891:1 
-0.05759235689778372 -0 -0 -0 -0 -0 -0 0 0 1:1 3:1 6:1 16:1 26:1 31:1 109:1 153:1 155:1 266:1 305:1 366:1 368:1 1003:1 
-0 -0 -0 -0 -0 -0.06811031796423181 -0 0 0 1:1 2:1 3:1 4:1 12:1 27:1 31:1 33:1 48:1 109:1 153:1 155:1 318:1 366:1 964:1 
-0 -0 -0 -0 -0 -0.1971421445199088 -0 0 0 1:1 3:1 4:1 5:1 11:1 60:1 109:1 153:1 155:1 211:1 212:1 366:1 400:1 658:1 1108:1 
-0 -0 -0 -0 -0 -0.1684556740902329 -0 0 0 1:1 3:1 5:1 6:1 32:1 109:1 153:1 155:1 203:1 204:1 361:1 366:1 658:1 1107:1 
-0 -0 -0 -0 -0 -0.07064555345240672 -0 0 0 1:1 2:1 3:1 4:1 5:1 53:1 109:1 153:1 155:1 198:1 199:1 366:1 386:1 658:1 1138:1 
-0 -0 -0 -0 -0 -0.8724983649444081 -0 0 0 1:1 3:1 4:1 5:1 11:1 32:1 109:1 153:1 155:1 189:1 191:1 366:1 377:1 744:1 1172:1 
-0 -0 -0 -0 -0 -0.2689900040872132 -0 0 0 1:1 2:1 3:1 5:1 14:1 48:1 109:1 153:1 155:1 157:1 158:1 366:1 417:1 768:1 1182:1 
-0.06513566798561518 -0 -0 -0 -0 -0 -0 0 0 1:1 3:1 5:1 6:1 109:1 133:1 135:1 136:1 153:1 155:1 341:1 366:1 1037:1 1223:1 
-0 -0.321134600242723 -0 -0 -0 -0 -0 0 0 6:1 9:1 16:1 36:1 83:1 132:1 140:1 183:1 186:1 281:1 810:1 911:1 1198:1 
-0 -0 -0.08755687857905656 -0 -0 -0 -0 0 0 2:1 4:1 9:1 15:1 34:1 42:1 57:1 81:1 93:1 98:1 125:1 132:1 147:1 634:1 
-0 -0 -0 -0 -0 -0.1199795750639207 -0 0 0 4:1 5:1 9:1 11:1 15:1 81:1 132:1 147:1 238:1 241:1 246:1 402:1 772:1 1014:1 
-0.4509060871646253 -0.06158077196384115 -0 -0 -0 -0 -0 0 0 1:1 6:1 13:1 15:1 34:1 42:1 48:1 81:1 92:1 125:1 126:1 147:1 281:1 723:1 
-0.4682942186917483 -0 -0.27091698451476 -0 -0 -0 -0 0 0 1:1 6:1 13:1 18:1 42:1 80:1 82:1 92:1 93:1 271:1 344:1 627:1 1090:1 1092:1 
-0 -0 -0 -0.7530191140908815 -0 -0 -0 0 0 1:1 2:1 4:1 13:1 18:1 36:1 80:1 82:1 86:1 92:1 435:1 644:1 1026:1 1030:1 1044:1 
-0.3161009565767005 -0 -0 -0 -0 -0 -0 0 0 1:1 6:1 12:1 13:1 16:1 18:1 36:1 80:1 82:1 86:1 92:1 126:1 738:1 911:1 
-0 -0 -0.2676051151898465 -0 -0 -0 -0 0 0 1:1 2:1 4:1 8:1 13:1 18:1 30:1 59:1 80:1 82:1 92:1 137:1 422:1 635:1 771:1 
-0 -0 -0.01641835947298688 -0 -0 -0 -0 0 0 1:1 4:1 8:1 11:1 13:1 18:1 59:1 60:1 80:1 82:1 92:1 408:1 739:1 741:1 845:1 
-0 -0 -0 -0 -0 -0 -0.05959946310660282 0 0 1:1 4:1 7:1 13:1 18:1 53:1 80:1 82:1 84:1 92:1 134:1 139:1 403:1 569:1 735:1 
-0 -0 -0.2406887966998105 -0 -0 -0 -0 0 0 1:1 2:1 4:1 7:1 13:1 18:1 77:1 80:1 82:1 92:1 101:1 424:1 525:1 529:1 943:1 
-0 -0 -0.04373213198573472 -0 -0 -0 -0 0 0 1:1 2:1 4:1 7:1 12:1 13:1 18:1 27:1 33:1 48:1 80:1 82:1 92:1 115:1 804:1 
-0 -0 -0 -0 -0 -0.6547095842272599 -0 0 0 1:1 4:1 5:1 11:1 13:1 18:1 32:1 74:1 80:1 82:1 92:1 284:1 332:1 343:1 889:1 
-0 -0 -0 -0 -0 -0.4290076306829008 -0 0 0 1:1 4:1 5:1 11:1 13:1 18:1 80:1 82:1 92:1 238:1 241:1 246:1 402:1 742:1 1151:1 
-0 -0 -0 -0 -0 -0 -0.1556583534704261 0 0 1:1 2:1 4:1 5:1 13:1 18:1 34:1 80:1 82:1 92:1 220:1 222:1 427:1 654:1 1127:1 
-0 -0 -0 -0 -0 -0 -0.08017494640608026 0 0 1:1 4:1 5:1 11:1 13:1 18:1 60:1 80:1 82:1 92:1 211:1 212:1 400:1 654:1 1177:1 
-0 -0 -0 -0 -0 -0 -0.06855749724367245 0 0 1:1 5:1 6:1 13:1 18:1 32:1 80:1 82:1 92:1 203:1 204:1 361:1 654:1 1190:1 
-0 -0.5805671497196551 -0 -0 -0 -0 -0 0 0 1:1 2:1 3:1 4:1 34:1 42:1 57:1 92:1 93:1 109:1 125:1 153:1 155:1 468:1 619:1 
-0.5389225367668724 -0 -0 -0 -0 -0 -0 0 0 1:1 3:1 4:1 11:1 18:1 26:1 42:1 66:1 80:1 92:1 93:1 347:1 624:1 1017:1 1034:1 
-0.1676751676694591 -0 -0 -0 -0 -0 -0 0 0 1:1 3:1 6:1 12:1 16:1 18:1 36:1 66:1 80:1 86:1 92:1 126:1 673:1 911:1 
-0 -0.3442687780479075 -0 -0 -0 -0 -0 0 0 1:1 2:1 3:1 4:1 18:1 40:1 63:1 66:1 80:1 92:1 429:1 618:1 942:1 959:1 965:1 
-0 -0 -0 -0 -0 -0 -0.3997709300220658 0 0 1:1 2:1 3:1 4:1 5:1 18:1 53:1 66:1 80:1 92:1 198:1 199:1 386:1 654:1 1175:1 
-0.3009789137381901 -0 -0 -0 -0 -0 -0 0 0 6:1 9:1 12:1 16:1 42:1 69:1 86:1 126:1 168:1 170:1 396:1 576:1 911:1 
-0 -0.1134278870566922 -0 -0 -0 -0 -0 0 0 3:1 6:1 10:1 26:1 45:1 83:1 93:1 140:1 183:1 186:1 350:1 738:1 1017:1 1034:1 
-0 -0 -0.1239230981916316 -0 -0 -0 -0 0 0 2:1 3:1 4:1 10:1 26:1 36:1 93:1 109:1 153:1 155:1 350:1 468:1 549:1 1017:1 1034:1 
-0 -0 -0 -0 -0 -0 -0 0.06154356319802046 0 3:1 6:1 10:1 26:1 55:1 69:1 93:1 168:1 170:1 344:1 350:1 707:1 1017:1 1034:1 
-0 -0 -0 -0.02853448146155641 -0 -0 -0 0 0 2:1 3:1 4:1 10:1 29:1 42:1 86:1 176:1 181:1 350:1 435:1 651:1 1026:1 1030:1 1044:1 
-0.2361703682257524 -0 -0 -0 -0 -0 -0 0 0 3:1 6:1 10:1 12:1 16:1 29:1 42:1 86:1 126:1 176:1 181:1 350:1 609:1 911:1 
-0 -0.1374131681319512 -0 -0 -0 -0 -0 0 0 2:1 3:1 4:1 10:1 29:1 36:1 63:1 176:1 181:1 350:1 429:1 675:1 942:1 959:1 965:1 
-0 -0.4685083316717966 -0 -0 -0 -0 -0 0 0 1:1 2:1 3:1 14:1 18:1 36:1 80:1 82:1 86:1 98:1 395:1 644:1 1026:1 1030:1 1044:1 
-0 -0.1689046543697215 -0 -0 -0 -0 -0 0 0 1:1 3:1 6:1 42:1 69:1 86:1 168:1 170:1 344:1 395:1 655:1 1026:1 1030:1 1044:1 
-0 -0.0446909463397391 -0 -0.08615510020915808 -0 -0 -0 0 0 1:1 3:1 4:1 11:1 29:1 42:1 86:1 176:1 181:1 347:1 395:1 651:1 1026:1 1030:1 1044:1 
-0 -0.2010412005372296 -0 -0 -0 -0 -0 0 0 1:1 2:1 3:1 4:1 8:1 45:1 149:1 192:1 193:1 194:1 395:1 423:1 673:1 872:1 894:1 
-0 -0.2304426641895657 -0 -0 -0 -0 -0 0 0 1:1 2:1 3:1 4:1 24:1 59:1 137:1 192:1 193:1 194:1 395:1 422:1 648:1 726:1 730:1 
-0.1864100989908825 -0 -0 -0 -0 -0 -0 0 0 1:1 3:1 6:1 16:1 26:1 43:1 64:1 192:1 193:1 194:1 371:1 395:1 666:1 703:1 
-0 -0.2673904521548677 -0 -0 -0 -0 -0 0 0 1:1 2:1 3:1 4:1 27:1 33:1 43:1 60:1 73:1 117:1 192:1 193:1 194:1 395:1 649:1 
-0.07706049449033325 -0 -0 -0 -0 -0 -0 0 0 1:1 3:1 16:1 41:1 43:1 67:1 192:1 193:1 194:1 375:1 395:1 603:1 606:1 657:1 
-0.1514536468974988 -0 -0 -0 -0 -0 -0 0 0 1:1 3:1 6:1 16:1 26:1 31:1 99:1 192:1 193:1 194:1 305:1 368:1 395:1 1029:1 
-0.08835739063287654 -0 -0 -0 -0 -0 -0 0 0 1:1 3:1 5:1 6:1 16:1 192:1 193:1 194:1 263:1 264:1 332:1 349:1 395:1 995:1 
-0.01291499875767578 -0 -0 -0 -0 -0 -0 0 0 1:1 3:1 5:1 6:1 133:1 135:1 136:1 192:1 193:1 194:1 341:1 395:1 768:1 1184:1 
-0 -0.1786514693629423 -0 -0 -0 -0 -0 0 0 1:1 3:1 6:1 36:1 63:1 69:1 168:1 170:1 344:1 426:1 644:1 942:1 959:1 965:1 
-0 -0.5241633424016764 -0 -0 -0 -0 -0 0 0 1:1 3:1 6:1 15:1 20:1 42:1 63:1 81:1 126:1 426:1 650:1 942:1 959:1 965:1 
-0 -0.1747488583117063 -0 -0 -0 -0 -0 0 0 1:1 2:1 3:1 4:1 27:1 33:1 43:1 60:1 64:1 117:1 207:1 209:1 210:1 426:1 692:1 
-0 -0 -0 -0.4899955144219033 -0 -0 -0 0 0 1:1 3:1 4:1 7:1 53:1 72:1 134:1 139:1 207:1 209:1 210:1 403:1 426:1 569:1 1079:1 
-0 -1 -0 -0 -0 -0 -0 0 0 1:1 3:1 6:1 30:1 63:1 64:1 83:1 140:1 183:1 186:1 367:1 657:1 902:1 903:1 
-0 -0 -0.08248249073658909 -0.4982751114753475 -0 -0 -0 0 0 1:1 2:1 3:1 4:1 8:1 35:1 55:1 149:1 208:1 213:1 367:1 423:1 826:1 872:1 894:1 
-0 -0.04701390012144209 -0 -0 -0 -0 -0 0 0 1:1 2:1 3:1 4:1 8:1 45:1 149:1 192:1 193:1 194:1 435:1 446:1 673:1 872:1 894:1 
-0 -0.5271369405563466 -0 -0 -0 -0 -0 0 0 1:1 2:1 3:1 4:1 8:1 35:1 55:1 149:1 208:1 213:1 412:1 446:1 826:1 872:1 894:1 
-0 -0.03631557728754237 -0 -0 -0 -0 -0 0 0 1:1 3:1 6:1 8:1 26:1 42:1 78:1 231:1 235:1 373:1 446:1 650:1 800:1 807:1 
-0 -1 -0 -0 -0 -0 -0 0 0 1:1 2:1 3:1 4:1 27:1 33:1 43:1 49:1 60:1 78:1 117:1 231:1 235:1 446:1 625:1 
-0 -0 -0.2364022699710806 -0 -0 -0 -0 0 0 1:1 2:1 3:1 4:1 7:1 73:1 78:1 101:1 231:1 235:1 424:1 446:1 525:1 529:1 671:1 
-0 -0.07288785983573054 -0 -0 -0 -0 -0 0 0 3:1 6:1 8:1 10:1 60:1 73:1 83:1 140:1 183:1 186:1 352:1 662:1 850:1 851:1 
-0 -0 -0.2129486595911538 -0 -0 -0 -0 0 0 2:1 3:1 4:1 8:1 10:1 50:1 60:1 192:1 193:1 194:1 352:1 435:1 678:1 850:1 851:1 
-0 -0 -0.3393183573269478 -0 -0 -0 -0 0 0 2:1 3:1 4:1 8:1 10:1 35:1 42:1 60:1 208:1 213:1 352:1 412:1 661:1 850:1 851:1 
-0 -0 -0.03541784575962369 -0.2263423336538584 -0 -0 -0 0 0 2:1 4:1 8:1 9:1 29:1 30:1 42:1 137:1 230:1 233:1 346:1 422:1 705:1 771:1 
-0 -0.9033571184323501 -0 -0 -0 -0 -0 0 0 1:1 3:1 6:1 8:1 30:1 67:1 83:1 129:1 140:1 183:1 186:1 422:1 771:1 844:1 
-0 -0 -0.1425899426088029 -0 -0 -0 -0 0 0 1:1 2:1 3:1 4:1 8:1 18:1 30:1 59:1 66:1 80:1 98:1 129:1 422:1 660:1 771:1 
-0 -0 -0.1287022987106917 -0.0446065506633005 -0 -0 -0 0 0 1:1 3:1 6:1 8:1 29:1 30:1 42:1 129:1 230:1 233:1 373:1 422:1 705:1 771:1 
-0.07061675347480371 -0 -0 -0.1680174835201355 -0 -0 -0 0 0 1:1 3:1 4:1 8:1 11:1 35:1 55:1 60:1 95:1 129:1 242:1 408:1 638:1 739:1 741:1 
-0 -0.02956343895816894 -0 -0 -0 -0 -0 0 0 3:1 6:1 8:1 10:1 60:1 67:1 83:1 140:1 183:1 186:1 365:1 739:1 741:1 864:1 
-0 -0 -0.04729393488087688 -0 -0 -0 -0 0 0 2:1 3:1 8:1 10:1 14:1 18:1 59:1 60:1 80:1 82:1 98:1 365:1 739:1 741:1 845:1 
-0 -0 -0.04137678191154304 -0 -0 -0 -0 0 0 2:1 3:1 4:1 8:1 10:1 18:1 59:1 60:1 66:1 80:1 98:1 365:1 702:1 739:1 741:1 
-0 -0 -0.05111147074816689 -0 -0 -0 -0 0 0 2:1 3:1 4:1 8:1 10:1 50:1 60:1 207:1 209:1 210:1 365:1 429:1 673:1 739:1 741:1 
-0 -0 -0.05926940916765723 -0 -0 -0 -0 0 0 3:1 4:1 8:1 10:1 11:1 37:1 42:1 60:1 221:1 224:1 365:1 414:1 691:1 739:1 741:1 
-0 -0 -0.5315256026600566 -0 -0 -0 -0 0 0 2:1 3:1 4:1 8:1 10:1 35:1 55:1 60:1 95:1 137:1 242:1 365:1 638:1 739:1 741:1 
-0 -0.08540400679985767 -0 -0 -0 -0 -0 0 0 2:1 3:1 4:1 10:1 24:1 36:1 37:1 137:1 247:1 248:1 365:1 422:1 726:1 730:1 740:1 
-0 -0.03426406257559531 -0 -0 -0 -0 -0 0 0 1:1 2:1 3:1 4:1 24:1 56:1 129:1 207:1 209:1 210:1 422:1 429:1 581:1 726:1 730:1 
-0 -0.5078048181369054 -0 -0 -0 -0 -0 0 0 1:1 2:1 3:1 4:1 24:1 35:1 36:1 95:1 129:1 137:1 242:1 422:1 604:1 726:1 730:1 
-0 -0.1046344952484069 -0 -0 -0 -0 -0 0 0 1:1 3:1 4:1 11:1 24:1 36:1 37:1 129:1 247:1 248:1 408:1 422:1 726:1 730:1 740:1 
-0.3789903650687879 -0 -0 -0 -0 -0 -0 0 0 1:1 3:1 6:1 16:1 26:1 42:1 43:1 95:1 129:1 255:1 258:1 371:1 604:1 666:1 
-0 -0.2736060781968096 -0 -0 -0 -0 -0 0 0 1:1 2:1 3:1 4:1 40:1 43:1 95:1 101:1 129:1 255:1 258:1 419:1 609:1 645:1 647:1 
-0 -0 -0.6083023187307059 -0 -0 -0 -0 0 0 1:1 2:1 3:1 4:1 7:1 49:1 95:1 101:1 129:1 255:1 258:1 424:1 525:1 529:1 649:1 
-0 -0.2442521174915086 -0 -0 -0 -0 -0 0 0 3:1 6:1 10:1 24:1 58:1 79:1 83:1 140:1 183:1 186:1 370:1 693:1 698:1 792:1 
-0 -0 -0.7545779078251613 -0 -0 -0 -0 0 0 2:1 3:1 4:1 10:1 24:1 45:1 58:1 78:1 231:1 235:1 370:1 423:1 609:1 693:1 698:1 
-0 -0 -0.121344935331677 -0 -0 -0 -0 0 0 2:1 4:1 9:1 16:1 26:1 43:1 50:1 78:1 231:1 235:1 406:1 423:1 666:1 678:1 
-0 -0 -0.1138783311118425 -0 -0 -0 -0 0 0 1:1 2:1 3:1 4:1 28:1 33:1 43:1 49:1 60:1 78:1 117:1 231:1 235:1 423:1 625:1 
-0.03892971598495606 -0 -0 -0 -0 -0 -0 0 0 1:1 3:1 6:1 28:1 29:1 33:1 43:1 50:1 60:1 117:1 230:1 233:1 373:1 720:1 
-0.3420280862189373 -0 -0 -0 -0 -0 -0 0 0 1:1 3:1 16:1 23:1 28:1 37:1 41:1 42:1 43:1 262:1 375:1 603:1 604:1 606:1 
-0 -0.04402575578515865 -0 -0 -0 -0 -0 0 0 1:1 2:1 3:1 4:1 7:1 23:1 28:1 37:1 49:1 143:1 149:1 262:1 339:1 345:1 823:1 
-0 -0 -0 -0.1538130650275872 -0 -0 -0 0 0 1:1 2:1 3:1 4:1 5:1 23:1 28:1 34:1 37:1 197:1 220:1 222:1 262:1 427:1 904:1 
-0 -0 -0 -0.03961699930002407 -0 -0 -0 0 0 1:1 3:1 4:1 5:1 11:1 12:1 23:1 28:1 37:1 148:1 150:1 262:1 318:1 376:1 889:1 
-0 -0.5890573404903715 -0 -0 -0 -0 -0 0 0 1:1 2:1 3:1 4:1 43:1 73:1 101:1 207:1 209:1 210:1 364:1 429:1 645:1 647:1 823:1 
-0 -0.4738028528481507 -0 -0 -0 -0 -0 0 0 1:1 2:1 3:1 4:1 40:1 43:1 95:1 101:1 137:1 255:1 258:1 364:1 609:1 645:1 647:1 
-0.289777959060895 -0 -0 -0.2392917971694545 -0 -0 -0 0.1019224683203864 0 1:1 3:1 14:1 43:1 55:1 85:1 108:1 134:1 251:1 277:1 278:1 364:1 418:1 623:1 705:1 
-0.04876775266455524 -0 -0 -0 -0 -0 -0 0 0 1:1 3:1 16:1 41:1 43:1 55:1 108:1 277:1 278:1 364:1 375:1 603:1 606:1 826:1 
-0 -0.3081851328227454 -0 -0 -0 -0 -0 0 0 1:1 2:1 3:1 4:1 43:1 55:1 101:1 108:1 277:1 278:1 364:1 425:1 585:1 588:1 661:1 
-0.02885250549987664 -0 -0 -0 -0 -0 -0 0 0 1:1 3:1 6:1 42:1 43:1 108:1 169:1 271:1 277:1 278:1 364:1 374:1 574:1 604:1 
-0 -0.7797468016824445 -0 -0 -0 -0 -0 0 0 6:1 13:1 43:1 77:1 83:1 85:1 128:1 140:1 183:1 186:1 251:1 362:1 623:1 854:1 
-0.1082263505497411 -0 -0 -0 -0 -0 -0 0 0 2:1 4:1 13:1 43:1 55:1 85:1 108:1 128:1 251:1 277:1 278:1 362:1 419:1 623:1 705:1 
-0 -0 -0 -0 -0 -0 -0 0.09273231567051876 0 2:1 4:1 13:1 43:1 46:1 55:1 101:1 119:1 128:1 286:1 362:1 425:1 585:1 588:1 624:1 
-0.6934882954686548 -0 -0 -0 -0 -0 -0 0 0 6:1 13:1 42:1 43:1 46:1 119:1 128:1 169:1 271:1 286:1 362:1 374:1 574:1 661:1 
-0 -0 -0.172669314564512 -0 -0 -0 -0 0 0 2:1 4:1 7:1 13:1 40:1 46:1 101:1 119:1 128:1 286:1 362:1 424:1 525:1 529:1 751:1 
-0 -0 -0 -0 -0 -0 -0.07841937510611902 0 0 2:1 4:1 5:1 13:1 46:1 53:1 119:1 121:1 128:1 198:1 199:1 286:1 362:1 386:1 880:1 
-0 -0.3698907595148061 -0 -0 -0 -0 -0 0 0 2:1 4:1 16:1 23:1 27:1 37:1 42:1 43:1 44:1 262:1 389:1 603:1 604:1 606:1 
-0.1047512423783217 -0 -0 -0 -0 -0 -0 0 0 6:1 15:1 42:1 43:1 44:1 169:1 271:1 292:1 294:1 374:1 389:1 574:1 624:1 
-0 -1 -0 -0 -0 -0 -0 0 0 1:1 3:1 6:1 43:1 77:1 83:1 101:1 140:1 183:1 186:1 355:1 585:1 588:1 1027:1 
-0 -0 -0.09631273622292939 -0 -0 -0 -0 0 0 1:1 2:1 3:1 4:1 43:1 55:1 101:1 108:1 277:1 278:1 355:1 419:1 585:1 588:1 661:1 
-0.1106382466712153 -0 -0 -0 -0 -0 -0 0 0 1:1 3:1 15:1 41:1 43:1 55:1 101:1 292:1 294:1 355:1 375:1 585:1 588:1 638:1 
-0 -0 -0.08170115949909232 -0 -0 -0 -0 0 0 1:1 2:1 3:1 4:1 7:1 40:1 101:1 124:1 302:1 306:1 355:1 424:1 525:1 529:1 678:1 
-0.3324613879698891 -0 -0 -0 -0 -0 -0 0 0 1:1 3:1 6:1 16:1 26:1 31:1 67:1 124:1 302:1 305:1 306:1 355:1 368:1 787:1 
-0.1134316985094436 -0 -0 -0 -0 -0 -0 0 0 1:1 3:1 5:1 6:1 124:1 133:1 135:1 136:1 302:1 306:1 318:1 341:1 355:1 1086:1 
-0 -0.150920497591965 -0 -0 -0 -0 -0 0 0 6:1 9:1 43:1 83:1 90:1 140:1 169:1 183:1 186:1 271:1 394:1 574:1 841:1 
-0 -0.2978988519115308 -0 -0 -0 -0 -0 0 0 2:1 3:1 4:1 7:1 36:1 53:1 124:1 128:1 139:1 302:1 306:1 411:1 425:1 569:1 605:1 
-0 -0.3117922491725695 -0 -0 -0 -0 -0 0 0 2:1 3:1 4:1 7:1 42:1 71:1 91:1 101:1 128:1 316:1 411:1 424:1 525:1 529:1 605:1 
-0 -0.1987769713131075 -0 -0 -0 -0 -0 0 0 3:1 6:1 7:1 83:1 114:1 140:1 141:1 183:1 186:1 351:1 538:1 541:1 542:1 961:1 
-0 -0 -0.2836873526145852 -0 -0 -0 -0 0 0 2:1 3:1 4:1 7:1 55:1 141:1 143:1 325:1 327:1 328:1 351:1 384:1 493:1 498:1 638:1 
-0 -0 -0.2610857058505392 -0 -0 -0 -0 0 0 2:1 3:1 4:1 12:1 27:1 31:1 33:1 48:1 76:1 141:1 325:1 327:1 328:1 351:1 689:1 
-0 -0 -0.1186661237383338 -0 -0 -0 -0 0 0 2:1 3:1 4:1 5:1 57:1 98:1 125:1 141:1 146:1 313:1 325:1 327:1 328:1 351:1 1024:1 
-0 -0.4571632017148193 -0 -0 -0 -0 -0 0 0 1:1 3:1 6:1 7:1 83:1 114:1 140:1 143:1 183:1 186:1 348:1 493:1 498:1 981:1 
-0.1458556363243355 -0 -0 -0 -0 -0 -0 0 0 1:1 3:1 4:1 7:1 55:1 142:1 143:1 325:1 327:1 328:1 348:1 407:1 493:1 498:1 638:1 
-0 -0 -0.2837265771726106 -0 -0 -0 -0 0 0 1:1 2:1 3:1 7:1 12:1 42:1 52:1 138:1 217:1 331:1 335:1 348:1 404:1 420:1 661:1 
-0 -0.09970057292041468 -0 -0 -0 -0 -0 0 0 1:1 2:1 3:1 4:1 7:1 36:1 138:1 143:1 149:1 331:1 335:1 339:1 345:1 348:1 619:1 
-0 -0 -0.2047084660789815 -0 -0 -0 -0 0 0 1:1 2:1 3:1 4:1 12:1 27:1 31:1 33:1 48:1 76:1 138:1 331:1 335:1 348:1 787:1 
-0 -0 -0.08665671190751373 -0 -0 -0 -0 0 0 1:1 2:1 3:1 4:1 5:1 30:1 94:1 138:1 249:1 250:1 331:1 335:1 348:1 397:1 901:1 
-0 -0 -0.1589921146157794 -0 -0 -0 -0 0 0 1:1 2:1 3:1 4:1 7:1 73:1 78:1 101:1 231:1 235:1 423:1 432:1 525:1 529:1 671:1 
-0 -0.808791267457891 -0 -0 -0 -0 -0 0 0 1:1 2:1 3:1 4:1 7:1 23:1 27:1 37:1 45:1 101:1 262:1 432:1 525:1 529:1 648:1 
-0 -0.1535039150356121 -0 -0 -0 -0 -0 0 0 1:1 2:1 3:1 7:1 17:1 21:1 36:1 124:1 333:1 334:1 388:1 392:1 398:1 432:1 609:1 
-0 -0.2511370892463281 -0 -0 -0 -0 -0 0 0 1:1 2:1 3:1 4:1 5:1 34:1 115:1 124:1 220:1 222:1 392:1 398:1 427:1 432:1 892:1 
-0 -0.08544268709584285 -0 -0 -0 -0 -0 0 0 1:1 2:1 3:1 4:1 5:1 88:1 89:1 111:1 117:1 124:1 131:1 392:1 398:1 432:1 863:1 
-0 -0 -0 -0.2169086288642514 -0 -0 -0 0 0 1:1 2:1 4:1 7:1 12:1 23:1 27:1 37:1 47:1 50:1 217:1 262:1 354:1 420:1 653:1 
-0 -0 -0 -0.1142157974323513 -0 -0 -0 0 0 1:1 4:1 7:1 12:1 42:1 47:1 142:1 217:1 325:1 327:1 328:1 354:1 407:1 420:1 619:1 
-0 -0 -0 -0.3046169198574772 -0 -0 -0 0 0 1:1 2:1 4:1 7:1 12:1 42:1 47:1 138:1 217:1 331:1 335:1 354:1 384:1 420:1 661:1 
-0 -0.2314765020549882 -0 -0.3934498716721831 -0 -0 -0 0 0 1:1 2:1 4:1 7:1 20:1 42:1 47:1 143:1 149:1 293:1 339:1 345:1 354:1 405:1 638:1 
-0 -0.3818161621740001 -0 -0 -0 -0 -0 0 0 1:1 3:1 6:1 7:1 83:1 120:1 140:1 143:1 149:1 183:1 186:1 345:1 433:1 907:1 
-0 -0 -0.06173817431402671 -0 -0 -0 -0 0 0 1:1 2:1 3:1 4:1 7:1 12:1 27:1 33:1 48:1 50:1 78:1 138:1 433:1 485:1 729:1 
-0 -0.524857659398884 -0 -0 -0 -0 -0 0 0 1:1 6:1 7:1 17:1 19:1 83:1 120:1 140:1 183:1 186:1 333:1 334:1 340:1 936:1 
-0 -0.04182945572926187 -0 -0 -0 -0 -0 0 0 1:1 2:1 4:1 7:1 17:1 19:1 23:1 27:1 37:1 49:1 262:1 333:1 334:1 340:1 674:1 
-0 -0 -0 -0.1257573386854696 -0 -0 -0 0 0 1:1 2:1 4:1 7:1 17:1 19:1 36:1 124:1 333:1 334:1 340:1 392:1 398:1 424:1 609:1 
-0 -0.7229926646178756 -0 -0 -0 -0 -0 0 0 1:1 6:1 7:1 17:1 19:1 30:1 83:1 120:1 140:1 183:1 186:1 326:1 356:1 1049:1 
-0 -0 -0 -0.04856850820674496 -0 -0 -0 0 0 1:1 2:1 4:1 7:1 17:1 19:1 30:1 36:1 124:1 326:1 356:1 392:1 398:1 424:1 642:1 
-0 -0.4393758884782668 -0 -0 -0 -0 -0 0 0 1:1 3:1 6:1 7:1 12:1 28:1 33:1 48:1 83:1 121:1 140:1 183:1 186:1 877:1 
-0 -0 -0 -0.04288793443128813 -0 -0 -0 0 0 1:1 2:1 3:1 4:1 20:1 23:1 28:1 31:1 42:1 110:1 123:1 145:1 299:1 308:1 749:1 
-0 -0.3185700645153099 -0 -0.2271769121032218 -0 -0 -0 0 0 1:1 2:1 3:1 4:1 20:1 23:1 28:1 31:1 42:1 57:1 123:1 296:1 297:1 393:1 810:1 
-0 -0.06183633332472481 -0 -0 -0 -0 -0 0 0 1:1 3:1 6:1 31:1 83:1 110:1 140:1 144:1 183:1 186:1 197:1 299:1 308:1 999:1 
-0 -0.05841699455101786 -0 -0 -0 -0 -0 0 0 1:1 2:1 3:1 5:1 34:1 52:1 59:1 109:1 144:1 273:1 275:1 311:1 430:1 577:1 665:1 
-0 -0 -0 -0 -0 -0.09276221345128452 -0 0 0 1:1 3:1 4:1 5:1 11:1 67:1 109:1 144:1 238:1 241:1 246:1 311:1 402:1 577:1 845:1 
-0 -0.07598134816368127 -0 -0 -0 -0 -0 0 0 1:1 2:1 3:1 4:1 5:1 57:1 98:1 102:1 109:1 125:1 144:1 146:1 311:1 577:1 967:1 
-0 -0.4630561633535298 -0 -0 -0 -0 -0 0 0 1:1 3:1 6:1 31:1 57:1 83:1 140:1 183:1 186:1 197:1 296:1 297:1 416:1 1102:1 
-0 -0 -0.3282499118933095 -0 -0 -0 -0 0 0 1:1 2:1 3:1 4:1 31:1 57:1 78:1 94:1 231:1 235:1 296:1 297:1 416:1 423:1 979:1 
-0 -0.03857478220792834 -0 -0.1141406414597405 -0 -0 -0 0 0 1:1 2:1 3:1 4:1 20:1 23:1 27:1 31:1 42:1 57:1 123:1 296:1 297:1 416:1 810:1 
-0.2865836258067921 -0 -0 -0 -0 -0 -0 0 0 1:1 3:1 6:1 15:1 29:1 31:1 55:1 57:1 296:1 297:1 368:1 416:1 579:1 723:1 
-0 -0 -0.08663145304281449 -0 -0 -0 -0 0 0 1:1 2:1 3:1 4:1 5:1 27:1 33:1 59:1 66:1 156:1 253:1 416:1 607:1 611:1 700:1 
-0 -0 -0.1488789732667778 -0 -0 -0 -0 0 0 1:1 2:1 3:1 4:1 5:1 57:1 66:1 98:1 102:1 125:1 146:1 416:1 607:1 611:1 963:1 
-0 -0.7062433263366565 -0 -0 -0 -0 -0 0 0 1:1 3:1 6:1 12:1 28:1 31:1 33:1 48:1 83:1 140:1 183:1 186:1 285:1 957:1 
-0 -0 -0.280692419897737 -0 -0 -0 -0 0 0 1:1 2:1 3:1 4:1 12:1 28:1 31:1 33:1 48:1 78:1 111:1 231:1 235:1 423:1 863:1 
-0 -0 -0 -0.3481458329497485 -0 -0 -0 0 0 1:1 3:1 4:1 5:1 11:1 20:1 23:1 28:1 32:1 55:1 74:1 123:1 284:1 343:1 691:1 
-0 -0 -0 -0 -0 -0 -0 0.05714437491767813 0 2:1 3:1 4:1 5:1 10:1 20:1 23:1 27:1 32:1 55:1 74:1 123:1 284:1 385:1 691:1 
-0 -0.2769930199637704 -0 -0 -0 -0 -0 0 0 1:1 3:1 5:1 6:1 48:1 83:1 89:1 130:1 140:1 183:1 186:1 201:1 583:1 1071:1 
-0 -0 -0 -0 -0 -0.1840151496736516 -0 0 0 1:1 2:1 3:1 5:1 14:1 18:1 48:1 80:1 82:1 89:1 98:1 130:1 201:1 318:1 1025:1 
-0 -0.7370570213524064 -0 -0 -0 -0 -0 0 0 1:1 2:1 3:1 5:1 34:1 42:1 52:1 123:1 130:1 273:1 275:1 310:1 430:1 590:1 740:1 
-0.5462088228862931 -0 -0 -0 -0 -0 -0 0 0 1:1 3:1 5:1 6:1 16:1 42:1 123:1 130:1 263:1 264:1 310:1 349:1 590:1 661:1 
-0 -0.1402369388449908 -0 -0 -0 -0 -0 0 0 1:1 2:1 3:1 4:1 5:1 27:1 33:1 42:1 123:1 130:1 156:1 253:1 310:1 590:1 686:1 
-0.07812137112484224 -0 -0 -0 -0 -0 -0 0 0 1:1 5:1 6:1 47:1 55:1 159:1 360:1 387:1 
-0 -0 -0 -0.1205694921590679 -0 -0 -0 0 0 1:1 2:1 4:1 5:1 23:1 27:1 34:1 37:1 47:1 102:1 262:1 273:1 275:1 387:1 990:1 
-0 -0 -0 -0.2253792242722334 -0 -0 -0 0 0 1:1 2:1 4:1 5:1 34:1 47:1 77:1 124:1 273:1 275:1 387:1 392:1 398:1 424:1 1012:1 
-0 -0 -0 -0.6615540003829312 -0 -0 -0 0 0 1:1 2:1 4:1 5:1 34:1 42:1 47:1 123:1 131:1 273:1 275:1 310:1 387:1 590:1 740:1 
-0 -0 -0 -0 -0 -0.05652113680736678 -0 0 0 1:1 4:1 5:1 11:1 18:1 40:1 47:1 238:1 241:1 246:1 387:1 402:1 549:1 685:1 688:1 
-0 -0 -0 -0.5232761617606937 -0 -0 -0 0 0 1:1 2:1 4:1 5:1 18:1 34:1 47:1 56:1 220:1 222:1 387:1 427:1 685:1 688:1 720:1 
-0 -0 -0 -0 -0 -0 -0.05286675543966279 0 0 1:1 2:1 4:1 5:1 18:1 47:1 53:1 56:1 198:1 199:1 386:1 387:1 685:1 688:1 709:1 
-0 -0 -0 -0.0336628614971661 -0 -0 -0 0 0 1:1 4:1 5:1 11:1 12:1 18:1 47:1 67:1 148:1 150:1 376:1 387:1 685:1 688:1 834:1 
-0.2133127397462362 -0 -0 -0 -0 -0 -0 0 0 1:1 5:1 6:1 18:1 47:1 72:1 133:1 135:1 136:1 341:1 387:1 668:1 685:1 688:1 
-0 -0 -0.04443616963322744 -0 -0 -0 -0 0 0 2:1 4:1 5:1 9:1 15:1 27:1 33:1 55:1 156:1 253:1 383:1 684:1 690:1 1119:1 
-0 -0.198821094001706 -0 -0.2761852030704394 -0 -0 -0 0 0 1:1 3:1 5:1 6:1 28:1 33:1 83:1 140:1 156:1 183:1 186:1 253:1 742:1 1202:1 
-0 -0 -0 -0.2201690170042691 -0 -0 -0 0 0 1:1 2:1 3:1 4:1 5:1 23:1 27:1 28:1 33:1 37:1 102:1 156:1 253:1 262:1 907:1 
-0 -0 -0 -0.04837911755079573 -0 -0 -0 0 0 1:1 2:1 3:1 4:1 5:1 28:1 33:1 77:1 124:1 156:1 253:1 392:1 398:1 424:1 840:1 
-0.2745473486871917 -0 -0 -0 -0 -0 -0 0 0 1:1 3:1 5:1 6:1 15:1 28:1 33:1 55:1 156:1 253:1 349:1 684:1 690:1 1119:1 
-0 -0 -0 -0.3081034583389904 -0 -0 -0 0 0 1:1 3:1 4:1 5:1 11:1 12:1 23:1 28:1 67:1 148:1 150:1 165:1 376:1 727:1 743:1 
-0 -0.8475891345320332 -0 -0 -0 -0 -0 0 0 1:1 3:1 5:1 6:1 30:1 83:1 140:1 183:1 186:1 249:1 250:1 353:1 567:1 1192:1 
-0 -0 -0 -0 -0.06755398102210791 -0 -0 0 0 3:1 5:1 10:1 15:1 41:1 99:1 238:1 241:1 246:1 292:1 294:1 375:1 410:1 945:1 
-0 -0 -0 -0 -0.08827290511488343 -0 -0 0 0 2:1 3:1 4:1 5:1 10:1 67:1 109:1 145:1 238:1 241:1 246:1 311:1 410:1 577:1 845:1 
-0 -0 -0 -0 -0.1525008451665596 -0 -0 0 0 3:1 5:1 6:1 10:1 15:1 29:1 67:1 238:1 241:1 246:1 368:1 410:1 579:1 659:1 
-0 -0 -0 -0 -0.07370276394292387 -0 -0 0 0 2:1 3:1 4:1 5:1 10:1 66:1 67:1 238:1 241:1 246:1 393:1 410:1 607:1 611:1 635:1 
-0 -0.11164251602491 -0 -0 -0 -0 -0 0 0 1:1 5:1 6:1 13:1 83:1 140:1 183:1 186:1 226:1 227:1 229:1 358:1 654:1 1204:1 
-0 -0 -0 -0 -0 -0.1868418880082681 -0 0 0 1:1 2:1 5:1 13:1 14:1 18:1 80:1 82:1 98:1 226:1 227:1 229:1 358:1 772:1 1104:1 
-0 -0 -0.48145706665879 -0 -0 -0 -0 0 0 1:1 2:1 4:1 5:1 13:1 78:1 226:1 227:1 229:1 231:1 235:1 332:1 358:1 423:1 989:1 
-0 -0 -0.1544419776893515 -0 -0 -0 -0 0 0 1:1 2:1 4:1 5:1 13:1 66:1 72:1 226:1 227:1 229:1 358:1 393:1 607:1 611:1 674:1 
-0 -0 -0.01019601037334293 -0 -0 -0 -0 0 0 1:1 2:1 4:1 5:1 13:1 20:1 23:1 27:1 49:1 123:1 226:1 227:1 229:1 358:1 750:1 
-0.2362856161507203 -0 -0.05894838034617619 -0.2138368940864772 -0 -0 -0 0 0 1:1 4:1 5:1 11:1 13:1 42:1 226:1 227:1 229:1 358:1 402:1 705:1 789:1 790:1 801:1 
-0 -0 -0 -0 -0 -0 -0.1049526792053708 0 0 1:1 2:1 4:1 5:1 13:1 40:1 53:1 198:1 199:1 358:1 386:1 655:1 830:1 839:1 842:1 
-0 -0.648206351369049 -0 -0 -0 -0 -0 0 0 1:1 2:1 3:1 4:1 5:1 23:1 27:1 34:1 37:1 197:1 220:1 222:1 262:1 428:1 904:1 
-0 -0.002503466949427526 -0 -0 -0 -0 -0 0 0 1:1 2:1 3:1 4:1 5:1 34:1 78:1 120:1 138:1 220:1 222:1 339:1 428:1 485:1 885:1 
-0 -0.1291839274960511 -0 -0 -0 -0 -0 0 0 1:1 2:1 3:1 4:1 5:1 34:1 84:1 109:1 145:1 220:1 222:1 311:1 428:1 577:1 975:1 
-0.650156476740563 -0.2876959400815973 -0 -0 -0 -0 -0 0.0342766824315973 0 1:1 3:1 5:1 6:1 18:1 32:1 55:1 203:1 204:1 361:1 428:1 691:1 883:1 895:1 
-0 -0.09127238320156042 -0 -0 -0 -0 -0 0 0 1:1 2:1 3:1 5:1 18:1 34:1 42:1 62:1 179:1 180:1 421:1 428:1 720:1 883:1 895:1 
-0 -0.02921261133810175 -0 -0 -0 -0 -0 0 0 1:1 2:1 3:1 4:1 5:1 18:1 50:1 57:1 98:1 125:1 146:1 428:1 809:1 883:1 895:1 
-0 -0.1798978633817443 -0 -0 -0 -0 -0 0 0 3:1 5:1 6:1 10:1 60:1 83:1 140:1 183:1 186:1 211:1 212:1 359:1 768:1 1185:1 
-0 -0 -0 -0 -0.1538775881673338 -0 -0 0 0 3:1 5:1 10:1 41:1 50:1 60:1 122:1 211:1 212:1 357:1 359:1 655:1 766:1 774:1 
-0 -0 -0.2920546061801496 -0 -0 -0 -0 0 0 2:1 3:1 4:1 5:1 10:1 18:1 55:1 60:1 211:1 212:1 359:1 427:1 650:1 883:1 895:1 
-0.3554550644218856 -0 -0 -0 -0 -0 -0 0 0 3:1 5:1 6:1 10:1 16:1 26:1 37:1 42:1 173:1 359:1 372:1 576:1 899:1 905:1 
-0 -0 -0.1880528224947482 -0 -0 -0 -0 0 0 2:1 4:1 5:1 9:1 18:1 32:1 55:1 203:1 204:1 381:1 427:1 691:1 883:1 895:1 
-0 -0.3759256487855612 -0 -0 -0 -0 -0 0 0 1:1 3:1 5:1 6:1 53:1 83:1 140:1 183:1 186:1 198:1 199:1 409:1 768:1 1097:1 
-0 -0 -0.08811448144173042 -0 -0 -0 -0 0 0 1:1 2:1 3:1 4:1 5:1 53:1 78:1 198:1 199:1 231:1 235:1 285:1 409:1 423:1 1002:1 
-0 -0 -0.7080625831595175 -0 -0 -0 -0 0 0 1:1 2:1 3:1 4:1 5:1 23:1 27:1 53:1 56:1 165:1 198:1 199:1 409:1 630:1 743:1 
-0.2588042399128674 -0 -0 -0 -0 -0 -0 0 0 1:1 3:1 5:1 6:1 53:1 55:1 106:1 198:1 199:1 361:1 409:1 707:1 917:1 921:1 
-0.4482218525501108 -0 -0 -0 -0 -0 -0 0 0 1:1 3:1 5:1 6:1 16:1 26:1 42:1 91:1 173:1 372:1 409:1 550:1 948:1 949:1 
-0 -0.2911139756847143 -0 -0.1585125607146428 -0 -0 -0 0 0 1:1 2:1 3:1 4:1 5:1 42:1 88:1 89:1 91:1 117:1 131:1 409:1 609:1 948:1 949:1 
-0 -0.05036844175544659 -0 -0 -0 -0 -0 0 0 3:1 5:1 6:1 10:1 32:1 83:1 140:1 183:1 186:1 189:1 191:1 390:1 853:1 1206:1 
-0 -0 -0 -0 -0.1071034660559835 -0 -0 0 0 3:1 5:1 10:1 32:1 41:1 49:1 122:1 189:1 191:1 357:1 390:1 766:1 774:1 775:1 
-0 -0.1016604465628515 -0 -0 -0 -0 -0 0 0 2:1 3:1 4:1 5:1 10:1 55:1 88:1 89:1 106:1 117:1 131:1 390:1 619:1 982:1 983:1 
-0 -0.3994732580032413 -0 -0 -0 -0 -0 0 0 1:1 5:1 6:1 34:1 61:1 83:1 140:1 179:1 180:1 183:1 186:1 369:1 853:1 1176:1 
-0 -0 -0 -0 -0 -0.09078214169926457 -0 0 0 1:1 2:1 5:1 14:1 18:1 34:1 61:1 80:1 82:1 98:1 179:1 180:1 369:1 658:1 1181:1 
-0.1455322774620093 -0 -0 -0 -0 -0 -0 0 0 1:1 5:1 6:1 55:1 61:1 159:1 360:1 369:1 
-0 -0 -0 -0.09036192820858904 -0 -0 -0 0 0 1:1 2:1 4:1 5:1 18:1 34:1 42:1 61:1 179:1 180:1 369:1 427:1 720:1 883:1 895:1 
-0.3888952128445048 -0 -0 -0 -0 -0 -0 0 0 1:1 4:1 5:1 11:1 34:1 37:1 42:1 61:1 179:1 180:1 369:1 400:1 572:1 899:1 905:1 
-0 -0 -0 -0.3377424222896275 -0 -0 -0 0 0 1:1 2:1 5:1 14:1 18:1 42:1 48:1 61:1 157:1 158:1 369:1 417:1 655:1 1055:1 1066:1 
-0 -0 -0 -0.2375277648148165 -0 -0 -0 0 0 2:1 4:1 5:1 9:1 15:1 29:1 55:1 88:1 89:1 117:1 131:1 391:1 705:1 1068:1 
-0 -0.3400364230626035 -0 -0 -0 -0 -0 0 0 1:1 2:1 3:1 4:1 5:1 23:1 27:1 37:1 88:1 89:1 117:1 130:1 262:1 313:1 1001:1 
-0 -0.4692494322689421 -0 -0 -0 -0 -0 0 0 1:1 2:1 3:1 4:1 5:1 78:1 88:1 89:1 99:1 117:1 130:1 138:1 339:1 485:1 748:1 
-0 -0.262857801014079 -0 -0 -0 -0 -0 0 0 1:1 2:1 3:1 4:1 5:1 23:1 27:1 59:1 88:1 89:1 117:1 130:1 165:1 743:1 746:1 
-0.1014897933675052 -0 -0 -0.2960801966945324 -0 -0 -0 0 0 1:1 3:1 5:1 6:1 15:1 29:1 55:1 88:1 89:1 117:1 130:1 372:1 705:1 1068:1 
-0 -0 -0 -0 -0 -0.2226478919838278 -0 0 0 1:1 2:1 4:1 5:1 13:1 18:1 48:1 66:1 80:1 98:1 157:1 158:1 363:1 744:1 1169:1 
-0 -0 -0 -0 -0 -0.06928811867309762 -0 0 0 1:1 4:1 5:1 11:1 13:1 29:1 48:1 157:1 158:1 176:1 181:1 347:1 363:1 658:1 1142:1 
-0 -0 -0 -0 -0 -0.1482254070944923 -0 0 0 1:1 4:1 5:1 11:1 13:1 22:1 48:1 157:1 158:1 254:1 260:1 318:1 363:1 399:1 1168:1 
-0 -0 -0 -0 -0 -0.05710901175495106 -0 0 0 1:1 4:1 5:1 11:1 13:1 48:1 67:1 106:1 107:1 157:1 158:1 343:1 363:1 636:1 844:1 
-0 -0 -0 -0 -0 -0.04226819182131283 -0 0 0 1:1 4:1 5:1 11:1 13:1 48:1 49:1 157:1 158:1 363:1 402:1 728:1 789:1 790:1 801:1 
-0 -0 -0.06775782955530402 -0 -0 -0 -0 0 0 1:1 2:1 4:1 5:1 13:1 18:1 36:1 48:1 157:1 158:1 363:1 427:1 672:1 883:1 895:1 
-0 -0.09275905616168684 -0 -0 -0 -0 -0 0 0 1:1 2:1 4:1 5:1 13:1 42:1 48:1 131:1 157:1 158:1 262:1 363:1 590:1 619:1 717:1 
-0 -0 -0 -0 -0.1161049640681546 -0 -0 0 0 3:1 5:1 10:1 12:1 41:1 64:1 122:1 148:1 150:1 357:1 415:1 766:1 774:1 809:1 
-0 -0.5999114749678611 -0 -0 -0 -0 -0 0 0 1:1 2:1 3:1 4:1 5:1 23:1 27:1 37:1 57:1 92:1 125:1 146:1 262:1 321:1 1124:1 
-0 -0.8936927492869234 -0 -0 -0 -0 -0 0 0 1:1 2:1 3:1 4:1 5:1 57:1 78:1 92:1 121:1 125:1 138:1 146:1 339:1 485:1 1061:1 
-0 -0.1615473206489914 -0 -0 -0 -0 -0 0 0 1:1 2:1 3:1 4:1 5:1 23:1 27:1 57:1 72:1 92:1 125:1 146:1 165:1 743:1 919:1 
-0 -0 -0.01220721663786145 -0 -0 -0 -0 0 0 1:1 2:1 3:1 4:1 5:1 18:1 50:1 57:1 92:1 125:1 146:1 427:1 809:1 883:1 895:1 
-0 -0 -0 -0 -0.04001680894230935 -0 -0 0 0 5:1 9:1 41:1 73:1 122:1 133:1 135:1 136:1 357:1 413:1 766:1 774:1 1054:1 
-0 -0 -0.05920432145883463 -0 -0 -0 -0 0 0 2:1 4:1 9:1 40:1 58:1 69:1 100:1 172:1 281:1 539:1 549:1 561:1 564:1 580:1 
-0 -0 -0.1235020199726008 -0 -0 -0 -0 0 0 2:1 4:1 9:1 12:1 27:1 33:1 50:1 69:1 93:1 539:1 561:1 564:1 751:1 868:1 
-0 -0 -0.1681638634858227 -0 -0 -0 -0 0 0 1:1 3:1 6:1 40:1 85:1 281:1 556:1 560:1 563:1 605:1 778:1 847:1 1195:1 1199:1 
-0 -0 -0.1818222168729097 -0.1368772594591708 -0 -0 -0 0 0 1:1 3:1 4:1 11:1 36:1 46:1 281:1 608:1 614:1 634:1 764:1 847:1 1114:1 1120:1 1122:1 
-0 -0 -0.209146290979901 -0 -0 -0 -0 0 0 1:1 3:1 26:1 40:1 41:1 46:1 93:1 608:1 614:1 769:1 846:1 847:1 953:1 955:1 
-0 -0 -0.4479749403699864 -0 -0 -0 -0 0 0 1:1 3:1 11:1 39:1 45:1 46:1 60:1 93:1 544:1 582:1 608:1 614:1 642:1 847:1 940:1 
-0 -0 -0.1018215813414697 -0 -0 -0 -0 0 0 1:1 2:1 3:1 45:1 46:1 52:1 93:1 104:1 201:1 608:1 614:1 678:1 822:1 847:1 887:1 
-0 -0 -0.3438072627945121 -0 -0 -0 -0 0 0 1:1 3:1 6:1 46:1 50:1 93:1 271:1 608:1 614:1 618:1 759:1 847:1 870:1 871:1 
-0 -0 -0.4498237507478718 -0 -0 -0 -0 0 0 1:1 2:1 3:1 4:1 27:1 33:1 46:1 63:1 64:1 85:1 139:1 608:1 614:1 746:1 847:1 
-0 -0.2350024940949512 -0.5475770037043101 -0 -0 -0 -0 0 0 1:1 2:1 3:1 12:1 14:1 24:1 46:1 84:1 547:1 548:1 608:1 614:1 762:1 847:1 1005:1 
-0.5354303280932722 -0 -0 -0.3916548924435181 -0 -0 -0 0 0 1:1 6:1 42:1 47:1 69:1 104:1 281:1 534:1 561:1 564:1 707:1 776:1 1159:1 1161:1 
-0 -0 -0 -0.875960904126549 -0 -0 -0 0.02825832306193206 0 1:1 2:1 14:1 42:1 47:1 65:1 281:1 587:1 592:1 686:1 776:1 815:1 1093:1 1094:1 1096:1 
-0.1061828430249142 -0 -0 -0 -0 -0 -0 0 0 1:1 6:1 45:1 47:1 65:1 93:1 271:1 587:1 592:1 759:1 775:1 776:1 870:1 871:1 
-0 -0 -0 -0.1837841399401929 -0 -0 -0 0 0 1:1 2:1 4:1 27:1 33:1 47:1 59:1 63:1 65:1 85:1 139:1 587:1 592:1 776:1 823:1 
-0 -0 -0 -0.4338129056836764 -0 -0 -0 0 0 2:1 3:1 4:1 10:1 36:1 46:1 281:1 608:1 614:1 634:1 811:1 833:1 1114:1 1120:1 1122:1 
-0 -0.2817103209466595 -0 -0 -0 -0 -0 0 0 2:1 3:1 10:1 12:1 17:1 21:1 42:1 281:1 595:1 596:1 598:1 686:1 763:1 811:1 1006:1 
-0 -0 -0.05357093161782398 -0 -0 -0 -0 0 0 2:1 3:1 4:1 10:1 12:1 27:1 33:1 40:1 93:1 595:1 596:1 598:1 675:1 811:1 868:1 
-0 -0 -0.06455236645859311 -0 -0 -0 -0 0 0 1:1 6:1 13:1 50:1 281:1 556:1 560:1 563:1 720:1 773:1 778:1 1093:1 1094:1 1096:1 
-0.1059148877584707 -0.1223692275291649 -0 -0 -0 -0 -0 0 0 1:1 2:1 13:1 42:1 52:1 65:1 281:1 587:1 592:1 686:1 773:1 820:1 1093:1 1094:1 1096:1 
-0.1657755378734753 -0 -0 -0.04905677995204098 -0 -0 -0 0 0 1:1 4:1 11:1 13:1 55:1 281:1 595:1 596:1 598:1 723:1 764:1 773:1 1093:1 1094:1 1096:1 
-0 -0 -0 -0.2063067785594879 -0 -0 -0 0 0 1:1 2:1 4:1 13:1 42:1 58:1 100:1 172:1 281:1 580:1 615:1 616:1 617:1 624:1 773:1 
-0 -0 -0 -0.1651653206591479 -0 -0 -0 0 0 1:1 2:1 12:1 13:1 17:1 21:1 42:1 281:1 615:1 616:1 617:1 691:1 763:1 773:1 1006:1 
-0 -0 -0.3091552734068685 -0 -0 -0 -0 0 0 1:1 2:1 4:1 12:1 13:1 27:1 33:1 40:1 93:1 615:1 616:1 617:1 620:1 773:1 868:1 
-0 -0 -0 -0 -0 -0 -0 0.1518639393692013 0 1:1 3:1 6:1 49:1 58:1 100:1 174:1 281:1 556:1 560:1 563:1 580:1 581:1 778:1 
-0 -0 -0 -0.4457671363642405 -0 -0 -0 0 0 1:1 3:1 4:1 11:1 42:1 58:1 100:1 174:1 281:1 580:1 595:1 596:1 598:1 691:1 764:1 
-0 -0.4395394586568154 -0 -0 -0 -0 -0 0 0 1:1 2:1 3:1 14:1 42:1 58:1 100:1 174:1 281:1 580:1 615:1 616:1 617:1 624:1 815:1 
-0 -0.1902050888470518 -0 -0 -0 -0 -0 0.02657293883796542 0 1:1 3:1 22:1 26:1 41:1 55:1 93:1 105:1 113:1 174:1 638:1 769:1 953:1 955:1 
-0 -0.3055769196644386 -0 -0 -0 -0 -0 0 0 1:1 2:1 3:1 22:1 42:1 52:1 93:1 104:1 105:1 113:1 174:1 201:1 627:1 822:1 887:1 
-0 -0.1183326069059542 -0.1448871262306099 -0 -0 -0 -0 0 0 1:1 2:1 3:1 4:1 12:1 22:1 27:1 33:1 36:1 93:1 105:1 113:1 174:1 550:1 868:1 
-0 -0.5752311357926766 -0 -0.2177688415616902 -0 -0 -0 0 0 1:1 2:1 4:1 12:1 17:1 19:1 40:1 46:1 281:1 608:1 609:1 614:1 819:1 833:1 1006:1 
-0.07811764073441993 -0 -0 -0 -0 -0 -0 0 0 1:1 19:1 20:1 25:1 26:1 41:1 55:1 93:1 643:1 705:1 769:1 819:1 953:1 955:1 
-0 -0 -0.03765431960437401 -0 -0 -0 -0 0 0 1:1 2:1 4:1 12:1 19:1 20:1 25:1 27:1 33:1 36:1 93:1 586:1 643:1 819:1 868:1 
-0 -0 -0 -0.1634146400390016 -0 -0 -0 0.09048518203427477 0 2:1 4:1 22:1 26:1 44:1 55:1 93:1 105:1 113:1 172:1 638:1 799:1 953:1 955:1 
-0 -0 -0.2493849468058347 -0 -0 -0 -0 0 0 2:1 4:1 12:1 27:1 29:1 33:1 36:1 44:1 93:1 651:1 679:1 681:1 799:1 868:1 
-0 -0 -0.2179434339132982 -0 -0 -0 -0 0 0 2:1 4:1 10:1 38:1 45:1 46:1 60:1 93:1 479:1 582:1 608:1 614:1 642:1 833:1 940:1 
-0 -0 -0.1482000085142832 -0 -0 -0 -0 0 0 4:1 10:1 11:1 36:1 38:1 60:1 93:1 479:1 582:1 595:1 596:1 598:1 749:1 764:1 940:1 
-0 -0 -0 -0.3992072031480306 -0 -0 -0 0 0 2:1 4:1 10:1 22:1 38:1 42:1 60:1 93:1 105:1 113:1 172:1 479:1 582:1 624:1 940:1 
-0 -0 -0.0728481692620484 -0 -0 -0 -0 0 0 2:1 10:1 20:1 21:1 25:1 38:1 42:1 60:1 93:1 479:1 582:1 643:1 763:1 826:1 940:1 
-0.1543213020502266 -0 -0 -0 -0 -0 -0 0 0 6:1 10:1 37:1 38:1 42:1 93:1 271:1 473:1 479:1 697:1 740:1 759:1 870:1 871:1 
-0 -0.3551128477365954 -0 -0 -0 -0 -0 0 0 2:1 4:1 10:1 36:1 37:1 38:1 58:1 86:1 100:1 172:1 473:1 479:1 580:1 605:1 697:1 
-0 -0 -0 -0 -0 -0 -0 0.05537388207968511 0 1:1 6:1 47:1 56:1 93:1 104:1 201:1 556:1 560:1 563:1 648:1 777:1 778:1 887:1 
-0 -0 -0 -0.5477303650313962 -0 -0 -0 0 0 1:1 2:1 4:1 22:1 42:1 47:1 93:1 104:1 105:1 113:1 172:1 201:1 627:1 777:1 887:1 
-0 -0 -0 -0.2419941030347736 -0 -0 -0 0 0 1:1 2:1 4:1 36:1 47:1 58:1 65:1 86:1 100:1 172:1 310:1 580:1 686:1 719:1 777:1 
-0 -0 -0 -0.1743363077766887 -0 -0 -0 0 0 1:1 2:1 4:1 27:1 33:1 47:1 50:1 63:1 65:1 85:1 139:1 310:1 675:1 719:1 777:1 
-0.4659865830919677 -0 -0 -0 -0 -0 -0 0.1737984006316216 0 1:1 6:1 8:1 47:1 59:1 65:1 310:1 593:1 594:1 597:1 719:1 777:1 793:1 825:1 
-0 -0 -0 -0 -0 -0 -0 0.1375514433842394 0 6:1 9:1 59:1 93:1 271:1 556:1 560:1 563:1 692:1 778:1 813:1 870:1 871:1 
-0 -0 -0.2998580832084077 -0.2787925192225082 -0 -0 -0 0 0 2:1 4:1 9:1 12:1 27:1 33:1 55:1 69:1 93:1 638:1 722:1 725:1 813:1 868:1 
-0 -0 -0.3701693941796237 -0 -0 -0 -0 0 0 1:1 3:1 6:1 12:1 28:1 33:1 59:1 93:1 556:1 560:1 563:1 701:1 778:1 868:1 
-0 -0 -0 -0.2658152901719019 -0 -0 -0 0 0 1:1 2:1 3:1 4:1 12:1 22:1 28:1 33:1 36:1 93:1 105:1 113:1 172:1 550:1 868:1 
-0 -0 -0.1882140635610073 -0 -0 -0 -0 0 0 1:1 3:1 12:1 28:1 29:1 33:1 36:1 41:1 93:1 651:1 679:1 681:1 769:1 868:1 
-0.07864657298060294 -0 -0 -0 -0 -0 -0 0 0 1:1 3:1 6:1 12:1 28:1 33:1 55:1 69:1 93:1 638:1 722:1 725:1 759:1 868:1 
-0 -0 -0 -0 -0 -0 -0 0.1989516307424383 0 1:1 3:1 6:1 58:1 64:1 86:1 100:1 174:1 555:1 556:1 560:1 563:1 580:1 778:1 
-0 -0.3611898863343793 -0 -0 -0 -0 -0 0 0 1:1 3:1 11:1 36:1 37:1 39:1 58:1 86:1 100:1 174:1 473:1 544:1 580:1 605:1 697:1 
-0 -0.0683860295807342 -0 -0 -0 -0 -0 0 0 1:1 2:1 3:1 36:1 52:1 58:1 65:1 86:1 100:1 174:1 310:1 580:1 686:1 719:1 822:1 
-0.2806972614079059 -0.1580751749873079 -0 -0 -0 -0 -0 0.05397209726562892 0 1:1 3:1 6:1 42:1 58:1 69:1 86:1 100:1 174:1 580:1 691:1 722:1 725:1 759:1 
-0 -0.07553248230403831 -0 -0 -0 -0 -0 0 0 1:1 2:1 3:1 22:1 45:1 53:1 62:1 63:1 105:1 113:1 174:1 549:1 629:1 631:1 767:1 
-0 -0 -0 -1 -0 -0 -0 0 0 1:1 2:1 4:1 17:1 19:1 20:1 23:1 27:1 30:1 42:1 86:1 650:1 770:1 779:1 780:1 
-0.09859837514139319 -0 -0 -0 -0 -0 -0 0 0 1:1 11:1 19:1 25:1 32:1 35:1 39:1 42:1 60:1 86:1 544:1 582:1 723:1 780:1 827:1 
-0 -0 -0 -0 -0 -0 -0 0.09765065944590741 0 6:1 10:1 32:1 38:1 60:1 73:1 86:1 479:1 556:1 560:1 563:1 582:1 702:1 778:1 
-0 -0 -0 -0.01025638563664899 -0 -0 -0 0 0 2:1 4:1 10:1 22:1 32:1 38:1 45:1 60:1 86:1 105:1 113:1 172:1 479:1 582:1 642:1 
-0 -0 -0 -0.1546609751645715 -0 -0 -0 0 0 2:1 4:1 10:1 20:1 23:1 27:1 32:1 36:1 38:1 60:1 86:1 479:1 582:1 740:1 779:1 
-0 -0 -0 -0.2173067931075468 -0 -0 -0 0 0 2:1 10:1 21:1 25:1 32:1 35:1 38:1 42:1 60:1 86:1 479:1 582:1 723:1 816:1 827:1 
-0 -0 -0 -0.1705006310695309 -0 -0 -0 0 0 2:1 4:1 10:1 37:1 38:1 42:1 74:1 86:1 106:1 473:1 479:1 624:1 713:1 716:1 794:1 
-0 -0 -0 -0 -0 -0 -0 0.6145436377057207 0 1:1 3:1 6:1 67:1 74:1 86:1 556:1 560:1 563:1 659:1 713:1 716:1 778:1 782:1 
-0 -0.1467904906508455 -0 -0 -0 -0 -0 0 0 1:1 2:1 3:1 4:1 46:1 59:1 74:1 86:1 608:1 614:1 653:1 713:1 716:1 782:1 833:1 
-0 -0 -0 -0 -0 -0 -0 0.05032145596873992 0 1:1 2:1 3:1 4:1 20:1 23:1 27:1 40:1 74:1 86:1 651:1 713:1 716:1 779:1 782:1 
-0 -0 -0.1691919133925547 -0 -0 -0 -0 0 0 1:1 3:1 11:1 26:1 39:1 55:1 63:1 107:1 638:1 694:1 696:1 782:1 821:1 881:1 896:1 
-0 -0.1463485769300038 -0 -0.2993585194470647 -0 -0 -0 0 0 1:1 2:1 3:1 4:1 27:1 33:1 42:1 63:1 85:1 107:1 139:1 624:1 782:1 881:1 896:1 
-0 -0 -0.8728275549016129 -0 -0 -0 -0 0 0 2:1 4:1 9:1 24:1 27:1 55:1 159:1 539:1 
-0 -0 -0.03085970887545755 -0 -0 -0 -0 0 0 2:1 9:1 14:1 24:1 55:1 159:1 539:1 762:1 
-0 -0 -0.340103728523963 -0 -0 -0 -0 0 0 10:1 26:1 29:1 38:1 41:1 50:1 63:1 628:1 679:1 681:1 694:1 696:1 769:1 784:1 
-0 -0 -0 -0 -0 -0 -0 0.06931751219337962 0 2:1 4:1 10:1 22:1 26:1 36:1 38:1 63:1 105:1 113:1 172:1 651:1 694:1 696:1 784:1 
-0 -0 -0 -0.1675867826169311 -0 -0 -0 0 0 2:1 4:1 10:1 26:1 38:1 55:1 63:1 107:1 638:1 694:1 696:1 784:1 794:1 881:1 896:1 
-0 -0 -0 -0.6678046070601054 -0 -0 -0 0 0 2:1 10:1 29:1 36:1 38:1 39:1 63:1 217:1 652:1 656:1 784:1 814:1 826:1 912:1 916:1 
-0 -0 -0 -0.5399604324178104 -0 -0 -0 0 0 1:1 2:1 3:1 4:1 28:1 33:1 46:1 63:1 64:1 85:1 139:1 608:1 614:1 746:1 833:1 
-0 -0 -0 -0.2953324009284886 -0 -0 -0 0 0 1:1 2:1 3:1 4:1 20:1 23:1 27:1 28:1 33:1 45:1 63:1 85:1 139:1 609:1 779:1 
-0.07924322925060728 -0 -0 -0 -0 -0 -0 0 0 1:1 3:1 6:1 24:1 28:1 55:1 159:1 534:1 
-0 -0.1111071796404476 -0 -0 -0 -0 -0 0 0 1:1 2:1 3:1 23:1 28:1 42:1 46:1 53:1 62:1 63:1 629:1 631:1 707:1 767:1 974:1 
-0 -0 -0 -0 -0 -0 -0 0.04483627947461544 0 1:1 6:1 38:1 63:1 79:1 217:1 556:1 560:1 563:1 652:1 656:1 727:1 758:1 778:1 
-0 -0 -0 -0.2936061539578357 -0 -0 -0 0 0 1:1 2:1 4:1 38:1 46:1 63:1 73:1 217:1 608:1 614:1 652:1 656:1 702:1 758:1 833:1 
-0.03987793618630664 -0 -0 -0 -0 -0 -0 0 0 1:1 6:1 24:1 38:1 55:1 159:1 534:1 758:1 
-0 -0 -0 -0.09710380437207246 -0 -0 -0 0 0 1:1 11:1 29:1 36:1 38:1 39:1 63:1 217:1 652:1 656:1 758:1 821:1 826:1 912:1 916:1 
-0 -0 -0 -0.05811058668707859 -0 -0 -0 0 0 1:1 2:1 14:1 30:1 38:1 42:1 63:1 293:1 621:1 622:1 624:1 758:1 798:1 980:1 986:1 
-0.1304260530239338 -0 -0 -0 -0 -0 -0 0 0 1:1 6:1 24:1 55:1 61:1 159:1 534:1 796:1 
-0 -0 -0 -0.9121982905493465 -0 -0 -0 0 0 1:1 2:1 4:1 23:1 27:1 42:1 46:1 53:1 61:1 63:1 629:1 631:1 707:1 796:1 974:1 
-0 -0 -0 -0 -0 -0 -0 0.09798090374264748 0 1:1 6:1 13:1 30:1 63:1 76:1 556:1 560:1 563:1 621:1 622:1 778:1 783:1 914:1 
-0 -0.2293704497352589 -0 -0 -0 -0 -0 0 0 1:1 2:1 4:1 13:1 20:1 23:1 27:1 30:1 49:1 63:1 621:1 622:1 644:1 779:1 783:1 
-0 -0.5376847961358 -0.2153647662313263 -0 -0 -0 -0 0 0 1:1 2:1 4:1 13:1 23:1 27:1 30:1 36:1 46:1 63:1 621:1 622:1 661:1 783:1 974:1 
-0 -0.03347535679140848 -0 -0 -0 -0 -0 0 0 1:1 2:1 13:1 30:1 39:1 42:1 63:1 293:1 621:1 622:1 624:1 783:1 814:1 980:1 986:1 
-0.1458707780298207 -0 -0 -0 -0 -0 -0 0 0 1:1 6:1 8:1 13:1 35:1 42:1 593:1 594:1 597:1 673:1 783:1 793:1 1051:1 1057:1 
-0 -0 -0 -0 -0 -0 -0 0.03290616801113758 0 1:1 2:1 8:1 13:1 52:1 59:1 65:1 228:1 310:1 477:1 600:1 613:1 719:1 817:1 822:1 
-0 -0 -0 -0 -0 -0 -0 0.2182398113174621 0 1:1 2:1 4:1 8:1 13:1 22:1 49:1 105:1 113:1 172:1 228:1 477:1 600:1 613:1 729:1 
-1 -0 -0 -0 -0 -0 -0 0 0 1:1 6:1 13:1 24:1 55:1 159:1 477:1 534:1 
-0 -0 -0 -0 -0 -0 -0 0.266451662261841 0 1:1 2:1 4:1 8:1 13:1 23:1 27:1 40:1 46:1 228:1 477:1 600:1 613:1 720:1 974:1 
-0 -0.1062844896142665 -0 -0 -0 -0 -0 0.05178033355658913 0 1:1 2:1 8:1 13:1 36:1 62:1 91:1 228:1 477:1 600:1 613:1 620:1 767:1 1047:1 1050:1 
-0 -0 -0 -0 -0 -0 -0 0.1462079503793374 0 1:1 2:1 8:1 13:1 14:1 35:1 42:1 228:1 477:1 600:1 613:1 798:1 810:1 1051:1 1057:1 
-0 -0 -0.2615470306361409 -0 -0 -0 -0 0 0 1:1 2:1 13:1 17:1 21:1 24:1 40:1 228:1 477:1 553:1 568:1 620:1 1095:1 1144:1 1145:1 
-0 -0 -0.137544758852197 -0 -0 -0 -0 0 0 1:1 2:1 13:1 24:1 40:1 62:1 477:1 551:1 552:1 554:1 720:1 765:1 1095:1 1144:1 1145:1 
-0 -0 -0 -0 -0 -0 -0 0.09401351898575902 0 2:1 4:1 8:1 9:1 22:1 64:1 105:1 113:1 172:1 593:1 594:1 597:1 704:1 797:1 
-0 -0 -0 -0 -0 -0 -0 0.2421383158846933 0 2:1 4:1 8:1 9:1 22:1 49:1 105:1 113:1 172:1 593:1 594:1 597:1 701:1 797:1 
-0 -0 -0 -0 -0 -0 -0 0.03865632077754245 0 2:1 8:1 9:1 36:1 39:1 293:1 593:1 594:1 597:1 625:1 797:1 814:1 980:1 986:1 
-0 -0 -0 -0 -0 -0 -0 0.07763325057536785 0 2:1 8:1 9:1 14:1 35:1 42:1 593:1 594:1 597:1 673:1 797:1 798:1 1051:1 1057:1 
-0.05470653145760883 -0.2643848058832828 -0 -0 -0 -0 -0 0 0 1:1 2:1 19:1 24:1 25:1 55:1 62:1 477:1 551:1 552:1 554:1 707:1 765:1 1095:1 1200:1 
-0.1060324544602316 -0 -0 -0 -0 -0 -0 0 0 1:1 6:1 24:1 55:1 61:1 159:1 534:1 781:1 
-0 -0.3374758777112967 -0 -0.25691414787488 -0 -0 -0 0 0 1:1 2:1 12:1 14:1 24:1 55:1 61:1 547:1 548:1 638:1 762:1 781:1 1211:1 1227:1 1230:1 
-0 -0 -0.3091966428087262 -0 -0 -0 -0 0 0 1:1 6:1 12:1 13:1 24:1 94:1 547:1 548:1 556:1 560:1 563:1 778:1 824:1 869:1 
-0 -0.2766549188637951 -0 -0 -0 -0 -0 0 0 1:1 2:1 4:1 12:1 13:1 24:1 46:1 84:1 547:1 548:1 608:1 614:1 824:1 833:1 1005:1 
-0 -0 -0.08395118071477452 -0 -0 -0 -0 0 0 2:1 4:1 9:1 27:1 33:1 50:1 83:1 85:1 93:1 103:1 139:1 188:1 225:1 628:1 
-0 -0 -0 -0 -0 -0 -0 0.2453275916784509 0 8:1 9:1 14:1 26:1 83:1 100:1 103:1 120:1 142:1 188:1 225:1 319:1 436:1 1052:1 
-0 -0.7254506828869531 -0 -0 -0 -0 -0 0 0 1:1 6:1 13:1 28:1 33:1 40:1 48:1 83:1 85:1 103:1 140:1 188:1 281:1 627:1 
-0 -0 -0 -0.3184467582763837 -0 -0 -0 0 0 1:1 2:1 4:1 13:1 23:1 28:1 45:1 46:1 58:1 82:1 86:1 97:1 528:1 578:1 939:1 
-0 -0 -0 -0.04041319359941597 -0 -0 -0 0 0 1:1 2:1 4:1 13:1 23:1 28:1 34:1 46:1 50:1 63:1 82:1 139:1 175:1 282:1 702:1 
-0 -0 -0.03916540414996923 -0 -0 -0 -0 0 0 1:1 2:1 4:1 8:1 13:1 23:1 27:1 28:1 33:1 46:1 49:1 82:1 156:1 674:1 760:1 
-0 -0 -0 -0 -0.1602199506819308 -0 -0 0 0 1:1 8:1 13:1 23:1 28:1 41:1 46:1 54:1 67:1 82:1 445:1 573:1 575:1 754:1 
-0 -0 -0.4482085649572104 -0 -0 -0 -0 0 0 1:1 2:1 4:1 8:1 12:1 13:1 23:1 27:1 28:1 33:1 46:1 79:1 82:1 434:1 967:1 
-0 -0 -0 -0.1451983150094912 -0 -0 -0 0 0 1:1 2:1 4:1 8:1 13:1 23:1 28:1 46:1 53:1 76:1 82:1 97:1 378:1 513:1 858:1 
-0 -0 -0 -0 -0 -0 -0 0.04015730294605066 0 1:1 2:1 13:1 14:1 23:1 28:1 43:1 46:1 82:1 115:1 151:1 279:1 280:1 571:1 998:1 
-0 -0 -0 -0.7268858722247862 -0 -0 -0 0 0 1:1 6:1 40:1 47:1 83:1 103:1 104:1 140:1 188:1 281:1 461:1 749:1 856:1 1197:1 
-0 -0 -0 -0.1580741216967575 -0 -0 -0 0 0 1:1 2:1 47:1 55:1 57:1 58:1 62:1 65:1 87:1 177:1 281:1 461:1 487:1 826:1 1165:1 
-0 -0 -0 -0.04072025112658163 -0 -0 -0 0 0 1:1 2:1 4:1 47:1 55:1 65:1 87:1 177:1 281:1 461:1 503:1 634:1 1116:1 1118:1 1121:1 
-0 -0 -0.09005251687921992 -0 -0 -0 -0 0.1708398523206306 0 1:1 2:1 4:1 36:1 47:1 58:1 65:1 87:1 93:1 172:1 177:1 461:1 549:1 580:1 1048:1 
-0 -0 -0 -0 -0.0612781505549601 -0 -0 0 0 1:1 2:1 8:1 47:1 52:1 56:1 65:1 87:1 104:1 177:1 461:1 511:1 712:1 715:1 731:1 
-0 -0 -0 -0 -0.03997610706650417 -0 -0 0 0 1:1 2:1 8:1 47:1 62:1 64:1 65:1 87:1 177:1 196:1 461:1 505:1 637:1 640:1 736:1 
-0 -0 -0 -0 -0.03469514108623169 -0 -0 0 0 1:1 2:1 8:1 39:1 47:1 65:1 73:1 87:1 177:1 251:1 461:1 499:1 610:1 612:1 843:1 
-0 -0 -0 -0 -0.05144542718586721 -0 -0 0 0 1:1 6:1 8:1 16:1 47:1 65:1 72:1 87:1 112:1 154:1 177:1 276:1 461:1 840:1 
-0 -0 -0 -0 -0.3023208058647952 -0 -0 0 0 1:1 8:1 41:1 47:1 65:1 79:1 87:1 169:1 177:1 337:1 342:1 461:1 510:1 802:1 
-0 -0 -0 -0 -0.1093439714976466 -0 -0 0 0 1:1 8:1 11:1 34:1 39:1 47:1 65:1 84:1 87:1 177:1 320:1 324:1 461:1 535:1 987:1 
-0 -0 -0 -0 -0.103334297161173 -0 -0 0 0 1:1 8:1 14:1 26:1 47:1 65:1 87:1 94:1 100:1 142:1 177:1 319:1 436:1 461:1 1053:1 
-0 -0 -0 -0 -0.04282524513144585 -0 -0 0 0 1:1 6:1 7:1 30:1 47:1 65:1 87:1 115:1 177:1 259:1 261:1 461:1 476:1 1105:1 
-0.1314178635386746 -0 -0 -0 -0 -0 -0 0 0 1:1 2:1 4:1 7:1 47:1 51:1 65:1 87:1 111:1 177:1 256:1 257:1 458:1 461:1 1011:1 
-0.07060150134195284 -0 -0 -0 -0 -0 -0 0 0 1:1 2:1 4:1 7:1 47:1 54:1 65:1 70:1 87:1 110:1 111:1 145:1 177:1 461:1 1058:1 
-0.07469463745136613 -0 -0 -0 -0.07511297815593741 -0 -0 0 0 1:1 4:1 7:1 11:1 47:1 51:1 65:1 87:1 111:1 177:1 232:1 234:1 439:1 461:1 1111:1 
-0 -0 -0 -0 -0.1988250844254256 -0 -0 0 0 1:1 12:1 16:1 31:1 41:1 47:1 65:1 87:1 121:1 177:1 205:1 448:1 461:1 1083:1 
-0 -0 -0 -0 -0.124370080482207 -0 -0 0 0 1:1 2:1 5:1 17:1 21:1 47:1 51:1 65:1 87:1 167:1 177:1 197:1 461:1 497:1 1148:1 
-0 -0.09938119858917846 -0 -0.09361767108868718 -0 -0 -0 0 0 1:1 6:1 40:1 57:1 58:1 61:1 83:1 103:1 140:1 188:1 281:1 455:1 549:1 1165:1 
-0.2649252603214667 -0 -0 -0.08667298936289039 -0 -0 -0 0 0 1:1 2:1 52:1 55:1 57:1 58:1 61:1 65:1 87:1 177:1 281:1 455:1 531:1 826:1 1165:1 
-0 -0 -0 -0.1649581193883821 -0 -0 -0 0 0 1:1 2:1 4:1 22:1 55:1 61:1 66:1 178:1 281:1 455:1 503:1 650:1 1116:1 1118:1 1121:1 
-0 -0 -0.2179972926299787 -0.128546674271925 -0 -0 -0 0 0 1:1 2:1 4:1 22:1 27:1 33:1 36:1 61:1 66:1 85:1 93:1 139:1 178:1 455:1 627:1 
-0 -0 -0 -0 -0.1470787124509988 -0 -0 0 0 1:1 8:1 22:1 41:1 51:1 61:1 66:1 67:1 178:1 438:1 455:1 589:1 591:1 930:1 
-0 -0.962180160288751 -0 -0 -0 -0 -0 0 0 1:1 3:1 6:1 40:1 83:1 103:1 140:1 188:1 281:1 462:1 642:1 1116:1 1118:1 1121:1 
-0.2398933908036854 -0 -0 -0 -0 -0 -0 0 0 1:1 2:1 3:1 52:1 55:1 65:1 87:1 177:1 281:1 462:1 531:1 634:1 1116:1 1118:1 1121:1 
-0 -0.1395820698013336 -0 -0 -0 -0 -0 0 0 1:1 2:1 3:1 22:1 55:1 62:1 66:1 178:1 281:1 462:1 487:1 650:1 1116:1 1118:1 1121:1 
-0 -0 -0.03450588173390983 -0 -0 -0 -0 0 0 1:1 2:1 3:1 4:1 27:1 33:1 36:1 85:1 93:1 139:1 184:1 185:1 187:1 462:1 624:1 
-0 -0 -0 -0 -0.03129241029018609 -0 -0 0 0 1:1 3:1 8:1 41:1 51:1 67:1 184:1 185:1 187:1 438:1 462:1 589:1 591:1 787:1 
-0 -0 -0 -0 -0.1682722077922078 -0 -0 0 0 1:1 3:1 8:1 41:1 54:1 67:1 184:1 185:1 187:1 445:1 462:1 573:1 575:1 913:1 
-0 -0.0441686099542187 -0 -0 -0 -0 -0 0 0 1:1 2:1 3:1 8:1 14:1 70:1 100:1 102:1 184:1 185:1 187:1 314:1 462:1 520:1 1016:1 
-0 -0.08037486378423242 -0 -0 -0 -0 -0 0 0 1:1 3:1 6:1 28:1 33:1 50:1 83:1 85:1 93:1 103:1 139:1 140:1 188:1 628:1 
-0 -0 -0 -0.12192650103663 -0 -0 -0 0 0 1:1 3:1 6:1 16:1 23:1 28:1 34:1 36:1 46:1 71:1 86:1 474:1 678:1 875:1 
-0 -0 -0 -0.4075808537774001 -0 -0 -0 0 0 1:1 2:1 3:1 4:1 23:1 28:1 34:1 40:1 46:1 63:1 71:1 139:1 175:1 282:1 578:1 
-0 -0 -0 -0.03204561652447255 -0 -0 -0 0 0 1:1 2:1 3:1 8:1 14:1 23:1 28:1 46:1 56:1 71:1 74:1 151:1 504:1 664:1 671:1 
-0 -0.51462053750768 -0 -0 -0 -0 -0 0.322552266594484 0 1:1 3:1 6:1 50:1 58:1 83:1 93:1 103:1 140:1 174:1 188:1 580:1 581:1 1048:1 
-0 -0.04581562410000079 -0 -0 -0 -0 -0 0 0 1:1 2:1 3:1 17:1 21:1 22:1 42:1 58:1 93:1 105:1 174:1 202:1 512:1 723:1 1004:1 
-0.1510914569776496 -0 -0 -0 -0 -0 -0 0 0 1:1 3:1 6:1 16:1 22:1 34:1 36:1 86:1 105:1 174:1 202:1 474:1 714:1 875:1 
-0 -0.0982510925985098 -0 -0 -0 -0 -0 0 0 1:1 2:1 3:1 4:1 8:1 22:1 27:1 33:1 45:1 105:1 156:1 174:1 202:1 672:1 760:1 
-0 -0 -0 -0.9512829739792972 -0 -0 -0 0 0 1:1 2:1 4:1 17:1 19:1 22:1 42:1 58:1 93:1 105:1 172:1 202:1 457:1 723:1 1004:1 
-0 -0 -0 -0.3779045367062086 -0 -0 -0 0 0 1:1 2:1 4:1 19:1 22:1 25:1 42:1 58:1 86:1 97:1 206:1 457:1 528:1 586:1 939:1 
-0.7690910472566918 -0 -0 -0 -0 -0 -0 0 0 1:1 6:1 16:1 19:1 22:1 25:1 34:1 42:1 86:1 206:1 457:1 474:1 673:1 875:1 
-0 -0 -0 -0 -0 -0 -0 0.1216430754611842 0 1:1 8:1 14:1 19:1 22:1 25:1 26:1 84:1 100:1 142:1 206:1 319:1 436:1 457:1 802:1 
-0 -0.4475264503755222 -0 -0 -0 -0 -0 0 0 3:1 6:1 10:1 34:1 56:1 83:1 93:1 103:1 140:1 188:1 469:1 700:1 973:1 976:1 
-0 -0.01104373839232033 -0.1159239005534774 -0 -0 -0 -0 0 0 2:1 3:1 10:1 14:1 23:1 27:1 34:1 45:1 46:1 82:1 93:1 469:1 732:1 973:1 976:1 
-0 -0.1097912624794994 -0 -0 -0 -0 -0 0 0 2:1 3:1 10:1 21:1 22:1 25:1 34:1 42:1 93:1 206:1 469:1 512:1 604:1 973:1 976:1 
-0 -0 -0.07356699308468603 -0.07348394067252305 -0 -0 -0 0 0 2:1 3:1 4:1 10:1 18:1 55:1 58:1 86:1 97:1 216:1 218:1 469:1 528:1 826:1 939:1 
-0.1947311673935788 -0.0981381168924538 -0 -0 -0 -0 -0 0 0 3:1 6:1 10:1 16:1 18:1 34:1 55:1 86:1 216:1 218:1 469:1 474:1 605:1 875:1 
-0 -0.0315999118996113 -0 -0 -0 -0 -0 0 0 1:1 3:1 6:1 56:1 58:1 83:1 86:1 97:1 103:1 140:1 188:1 530:1 701:1 939:1 
-0.2401908951822519 -0 -0 -0.2372069146088613 -0 -0 -0 0 0 1:1 3:1 4:1 11:1 18:1 55:1 58:1 86:1 97:1 216:1 218:1 508:1 530:1 826:1 939:1 
-0.5649567486305436 -0 -0 -0.0456213892678301 -0 -0 -0 0 0 1:1 3:1 6:1 12:1 16:1 22:1 42:1 63:1 68:1 154:1 236:1 276:1 530:1 846:1 
-0 -0 -0 -0.2800716824215296 -0 -0 -0 0 0 1:1 2:1 3:1 4:1 8:1 22:1 27:1 33:1 36:1 68:1 156:1 236:1 530:1 673:1 760:1 
-0 -0 -0 -0.03254857583442342 -0 -0 -0 0 0 1:1 2:1 3:1 4:1 8:1 22:1 59:1 68:1 97:1 175:1 236:1 282:1 522:1 530:1 745:1 
-0 -0 -0 -0.1327170268490318 -0 -0 -0 0 0 1:1 2:1 3:1 4:1 8:1 22:1 53:1 68:1 73:1 97:1 236:1 378:1 513:1 530:1 689:1 
-0.1107609700465893 -0 -0 -0 -0 -0 -0 0 0 1:1 2:1 3:1 4:1 7:1 22:1 54:1 68:1 70:1 102:1 110:1 145:1 236:1 530:1 1147:1 
-0 -0 -0 -0.9305806176088688 -0 -0 -0 0 0 1:1 2:1 4:1 17:1 19:1 23:1 27:1 36:1 46:1 71:1 86:1 451:1 572:1 856:1 900:1 
-0 -0 -0 -0.1630850829986808 -0 -0 -0 0 0 1:1 2:1 4:1 19:1 25:1 34:1 42:1 63:1 87:1 139:1 175:1 237:1 282:1 451:1 550:1 
-0.5081778830452968 -0 -0 -0 -0 -0 -0 0 0 1:1 6:1 12:1 16:1 19:1 25:1 42:1 63:1 87:1 154:1 237:1 276:1 451:1 706:1 
-0 -0 -0 -0 -0.1073562695713701 -0 -0 0 0 1:1 8:1 19:1 25:1 41:1 51:1 56:1 87:1 237:1 438:1 451:1 589:1 591:1 657:1 
-0 -0 -0.03901710905267664 -0 -0 -0 -0 0 0 2:1 4:1 9:1 16:1 23:1 27:1 34:1 36:1 46:1 71:1 86:1 524:1 678:1 875:1 
-0 -0 -0 -0 -0 -0 -0 0.1077636355229334 0 2:1 8:1 9:1 14:1 15:1 18:1 70:1 77:1 100:1 245:1 314:1 520:1 524:1 854:1 
-0 -0.3496119812729936 -0.03960381609920276 -0 -0 -0 -0 0 0 1:1 2:1 3:1 14:1 23:1 27:1 34:1 46:1 50:1 63:1 82:1 139:1 160:1 282:1 702:1 
-0 -0.5244378062228113 -0 -0 -0 -0 -0 0 0 1:1 2:1 3:1 4:1 23:1 27:1 34:1 40:1 46:1 63:1 71:1 139:1 160:1 282:1 578:1 
-0 -0.2449774707267806 -0 -0 -0 -0 -0 0 0 1:1 2:1 3:1 21:1 25:1 34:1 42:1 63:1 87:1 139:1 160:1 237:1 282:1 519:1 550:1 
-0.2795886996079272 -0 -0 -0 -0 -0 -0 0 0 1:1 3:1 6:1 15:1 18:1 34:1 42:1 63:1 139:1 160:1 245:1 282:1 474:1 661:1 
-0 -0.1811932640497561 -0 -0 -0 -0 -0 0 0 1:1 2:1 3:1 8:1 14:1 18:1 42:1 71:1 101:1 118:1 160:1 196:1 496:1 634:1 737:1 
-0 -0.1968230793386893 -0 -0 -0 -0 -0 0 0 1:1 2:1 3:1 8:1 18:1 36:1 52:1 71:1 104:1 118:1 160:1 511:1 605:1 712:1 715:1 
-0 -0.5035154671923232 -0 -0 -0 -0 -0 0 0 1:1 2:1 3:1 8:1 18:1 36:1 39:1 71:1 118:1 149:1 160:1 196:1 527:1 711:1 714:1 
-0 -0 -0 -0 -0 -0 -0 0.2403479132358167 0 1:1 2:1 3:1 8:1 14:1 18:1 70:1 71:1 84:1 100:1 118:1 160:1 314:1 520:1 906:1 
-0.3597865635786746 -0 -0 -0 -0 -0 -0 0 0 1:1 2:1 3:1 4:1 7:1 18:1 51:1 71:1 114:1 118:1 160:1 256:1 257:1 458:1 1101:1 
-0.2071803939517308 -0 -0 -0 -0 -0 -0 0 0 1:1 2:1 3:1 4:1 7:1 18:1 54:1 71:1 74:1 114:1 118:1 160:1 252:1 443:1 945:1 
-0.05753696678712061 -0 -0 -0 -0 -0 -0 0 0 1:1 2:1 3:1 4:1 7:1 18:1 54:1 70:1 71:1 110:1 114:1 118:1 145:1 160:1 1052:1 
-0.02872631543167426 -0 -0 -0 -0 -0 -0 0 0 1:1 3:1 4:1 7:1 11:1 18:1 51:1 71:1 114:1 118:1 160:1 232:1 234:1 439:1 879:1 
-0.05606841882568617 -0 -0 -0 -0 -0 -0 0 0 1:1 3:1 4:1 7:1 11:1 12:1 18:1 71:1 102:1 118:1 160:1 219:1 223:1 442:1 1009:1 
-0 -0.4236556178627394 -0 -0 -0 -0 -0 0 0 1:1 3:1 6:1 8:1 28:1 33:1 64:1 83:1 103:1 140:1 156:1 188:1 760:1 1079:1 
-0 -0 -0 -0.1319547222408351 -0 -0 -0 0 0 1:1 2:1 3:1 4:1 8:1 22:1 28:1 33:1 36:1 68:1 156:1 236:1 528:1 673:1 760:1 
-0 -0 -0 -0.2549331815274341 -0 -0 -0 0 0 1:1 2:1 3:1 8:1 14:1 23:1 28:1 40:1 74:1 151:1 165:1 269:1 504:1 618:1 664:1 
-0 -0 -0 -0 -0 -0 -0 0.3351593067372278 0 1:1 6:1 8:1 13:1 64:1 83:1 101:1 103:1 140:1 188:1 196:1 467:1 737:1 745:1 
-0 -0 -0 -0 -0 -0 -0 0.4006371847153495 0 1:1 2:1 4:1 8:1 13:1 23:1 27:1 45:1 46:1 71:1 101:1 196:1 467:1 653:1 737:1 
-0 -0 -0.1852688503963745 -0 -0 -0 -0 0 0 1:1 6:1 8:1 13:1 15:1 18:1 36:1 101:1 196:1 245:1 467:1 474:1 549:1 737:1 
-0 -0 -0 -0.06880504593954405 -0 -0 -0 0.1220636572537938 0 1:1 2:1 4:1 8:1 13:1 18:1 42:1 71:1 101:1 118:1 175:1 196:1 467:1 634:1 737:1 
-0 -0.1393366022204253 -0 -0 -0 -0 -0 0 0 1:1 2:1 8:1 13:1 39:1 42:1 75:1 108:1 149:1 196:1 265:1 467:1 527:1 550:1 711:1 
-0 -0 -0 -0.1806339388217117 -0 -0 -0 0 0 1:1 2:1 8:1 14:1 23:1 27:1 46:1 47:1 56:1 82:1 104:1 471:1 712:1 715:1 727:1 
-0 -0 -0 -0.2161772622314112 -0 -0 -0 0 0 1:1 2:1 4:1 8:1 23:1 27:1 46:1 47:1 50:1 71:1 104:1 471:1 660:1 712:1 715:1 
-0 -0 -0 -0.3856441766599001 -0 -0 -0 0 0 1:1 2:1 4:1 8:1 22:1 40:1 47:1 68:1 104:1 236:1 471:1 528:1 712:1 715:1 732:1 
-0 -0 -0 -0.04718472589692942 -0 -0 -0 0 0 1:1 2:1 8:1 14:1 42:1 47:1 75:1 104:1 108:1 265:1 471:1 496:1 712:1 715:1 826:1 
-0 -0.197666713730732 -0 -0.09285094362222032 -0 -0 -0 0 0 1:1 2:1 8:1 39:1 47:1 55:1 65:1 149:1 196:1 272:1 274:1 471:1 527:1 619:1 711:1 
-0 -0 -0 -0 -0.218176516042446 -0 -0 0 0 1:1 8:1 41:1 45:1 47:1 51:1 65:1 272:1 274:1 438:1 471:1 589:1 591:1 710:1 
-0 -0 -0 -0 -0 -0 -0 0.06679225517267484 0 1:1 2:1 8:1 14:1 47:1 65:1 70:1 79:1 100:1 272:1 274:1 314:1 471:1 520:1 992:1 
-0 -0 -0 -0 -0 -0 -0 0.05563928898475481 0 1:1 2:1 14:1 43:1 47:1 65:1 77:1 151:1 272:1 274:1 279:1 280:1 471:1 571:1 835:1 
-0.1501508624482846 -0 -0 -0 -0 -0 -0 0 0 1:1 2:1 4:1 7:1 47:1 51:1 65:1 90:1 256:1 257:1 272:1 274:1 458:1 471:1 987:1 
-0.04690512785749838 -0 -0 -0 -0 -0 -0 0 0 1:1 2:1 4:1 7:1 47:1 54:1 65:1 70:1 90:1 110:1 145:1 272:1 274:1 471:1 1036:1 
-0 -0 -0 -0.5403007003077046 -0 -0 -0 0 0 1:1 2:1 4:1 8:1 22:1 38:1 40:1 68:1 149:1 196:1 236:1 528:1 545:1 692:1 711:1 
-0 -0 -0 -0.3532376516902426 -0 -0 -0 0 0 1:1 2:1 8:1 14:1 38:1 42:1 75:1 108:1 149:1 196:1 265:1 496:1 545:1 550:1 711:1 
-0.1076677611245828 -0 -0 -0 -0 -0 -0 0 0 1:1 2:1 8:1 38:1 52:1 55:1 65:1 149:1 196:1 272:1 274:1 511:1 545:1 619:1 711:1 
-0 -0.2260904137009877 -0 -0.286684003508979 -0 -0 -0 0 0 1:1 2:1 4:1 8:1 12:1 27:1 33:1 38:1 49:1 75:1 78:1 291:1 434:1 545:1 785:1 
-0 -0 -0 -0.4471601017508272 -0 -0 -0 0 0 1:1 2:1 4:1 8:1 38:1 53:1 56:1 75:1 78:1 97:1 291:1 378:1 513:1 545:1 555:1 
-0 -0 -0 -0.1666084085563048 -0 -0 -0 0 0 1:1 2:1 4:1 24:1 38:1 58:1 75:1 78:1 79:1 291:1 304:1 307:1 532:1 545:1 668:1 
-0 -0 -0 -0.2766425847048121 -0 -0 -0 0 0 1:1 2:1 4:1 12:1 24:1 38:1 75:1 78:1 84:1 96:1 283:1 291:1 495:1 545:1 734:1 
-0 -0 -0 -0.7277922143888685 -0 -0 -0 0 0 1:1 2:1 4:1 8:1 17:1 19:1 23:1 27:1 36:1 165:1 269:1 452:1 620:1 677:1 682:1 
-0.243588494642077 -0 -0 -0 -0 -0 -0 0 0 1:1 2:1 8:1 17:1 19:1 42:1 52:1 65:1 272:1 274:1 452:1 511:1 586:1 677:1 682:1 
-0 -0.2558924090749199 -0 -0 -0 -0 -0 0 0 1:1 2:1 8:1 19:1 25:1 42:1 62:1 196:1 287:1 288:1 452:1 505:1 637:1 640:1 686:1 
-0 -0 -0 -0.8094924585859299 -0 -0 -0 0 0 1:1 2:1 8:1 14:1 19:1 25:1 30:1 42:1 97:1 287:1 288:1 452:1 521:1 605:1 633:1 
-0 -0.6161612845894555 -0 -0 -0 -0 -0 0.2145487473320707 0 1:1 6:1 8:1 13:1 72:1 74:1 83:1 103:1 140:1 151:1 188:1 509:1 664:1 838:1 
-0 -0 -0 -0.1372525857756654 -0 -0 -0 0 0 1:1 2:1 4:1 8:1 13:1 23:1 27:1 40:1 74:1 151:1 165:1 269:1 509:1 618:1 664:1 
-0 -0.08224580349246788 -0 -0 -0 -0 -0 0 0 1:1 2:1 8:1 13:1 14:1 30:1 55:1 97:1 107:1 200:1 295:1 509:1 521:1 633:1 740:1 
-0 -0 -0.03380470002857952 -0 -0 -0 -0 0 0 1:1 2:1 4:1 8:1 12:1 13:1 27:1 33:1 45:1 107:1 200:1 295:1 434:1 509:1 710:1 
-0.03118555475850884 -0 -0 -0 -0 -0 -0 0 0 1:1 2:1 4:1 7:1 13:1 51:1 84:1 107:1 200:1 256:1 257:1 295:1 458:1 509:1 890:1 
-0.02268246157895474 -0 -0 -0 -0 -0 -0 0 0 1:1 4:1 7:1 11:1 12:1 13:1 77:1 107:1 200:1 219:1 223:1 295:1 442:1 509:1 926:1 
-0 -0.1483005851939666 -0 -0 -0 -0 -0 0 0 1:1 6:1 8:1 61:1 72:1 83:1 103:1 140:1 188:1 196:1 460:1 637:1 640:1 922:1 
-0 -0.1675667364893367 -0 -0 -0 -0 -0 0 0 1:1 2:1 8:1 21:1 25:1 42:1 61:1 196:1 287:1 288:1 460:1 518:1 637:1 640:1 686:1 
-0.1540978251979802 -0.1593591030535163 -0 -0 -0 -0 -0 0 0 1:1 2:1 8:1 14:1 55:1 61:1 107:1 196:1 200:1 295:1 460:1 504:1 637:1 640:1 723:1 
-0 -0 -0 -0.06757365526506945 -0 -0 -0 0 0 1:1 2:1 8:1 14:1 30:1 55:1 61:1 75:1 97:1 298:1 301:1 460:1 521:1 633:1 650:1 
-0 -0 -0.09369063183517504 -0 -0 -0 -0 0 0 1:1 2:1 4:1 8:1 12:1 27:1 33:1 45:1 61:1 75:1 298:1 301:1 434:1 460:1 630:1 
-0 -0 -0.06741870111814385 -0 -0 -0 -0 0.3809998966203939 0 1:1 2:1 4:1 8:1 13:1 23:1 27:1 30:1 40:1 97:1 165:1 269:1 537:1 578:1 633:1 
-0 -0 -0.05308417758262844 -0 -0 -0 -0 0 0 1:1 2:1 8:1 13:1 14:1 30:1 40:1 75:1 97:1 108:1 265:1 496:1 537:1 630:1 633:1 
-0 -0 -0 -0 -0 -0 -0 0.2191257509052318 0 1:1 2:1 8:1 13:1 14:1 30:1 55:1 97:1 107:1 200:1 295:1 504:1 537:1 633:1 740:1 
-0 -0 -0 -0 -0 -0 -0 0.1255300665681372 0 1:1 2:1 8:1 13:1 30:1 55:1 62:1 75:1 97:1 298:1 301:1 505:1 537:1 633:1 650:1 
-0 -0 -0.04360122466568438 -0 -0 -0 -0 0 0 1:1 8:1 13:1 35:1 36:1 41:1 51:1 68:1 317:1 438:1 537:1 589:1 591:1 624:1 
-0 -0 -0.2344361477646758 -0 -0 -0 -0 0 0 1:1 8:1 13:1 35:1 36:1 41:1 54:1 68:1 317:1 445:1 537:1 573:1 575:1 691:1 
-0 -0 -0.1017751863197107 -0 -0 -0 -0 0 0 1:1 8:1 11:1 13:1 32:1 35:1 39:1 45:1 60:1 68:1 317:1 431:1 456:1 537:1 620:1 
-0 -0 -0.03004506196747337 -0 -0 -0 -0 0 0 1:1 8:1 11:1 13:1 34:1 35:1 39:1 49:1 68:1 317:1 320:1 324:1 535:1 537:1 665:1 
-0 -0.04662591052512673 -0 -0 -0 -0 -0 0 0 1:1 6:1 8:1 38:1 79:1 83:1 103:1 140:1 188:1 251:1 449:1 610:1 612:1 757:1 
-0 -0 -0 -0.4150511511622147 -0 -0 -0 0 0 1:1 2:1 8:1 14:1 23:1 27:1 38:1 46:1 73:1 82:1 251:1 449:1 610:1 612:1 838:1 
-0 -0 -0 -0.1131321332211781 -0 -0 -0 0 0 1:1 2:1 4:1 8:1 23:1 27:1 38:1 46:1 59:1 71:1 251:1 449:1 610:1 612:1 832:1 
-0 -0 -0 -0.0832923608784952 -0 -0 -0 0 0 1:1 2:1 8:1 38:1 39:1 40:1 75:1 78:1 251:1 291:1 449:1 527:1 576:1 610:1 612:1 
-0 -0 -0 -0.3069545953282979 -0 -0 -0 0 0 1:1 2:1 8:1 14:1 38:1 42:1 107:1 200:1 251:1 295:1 449:1 504:1 610:1 612:1 627:1 
-0.1625853509767237 -0 -0 -0.06721741251080254 -0 -0 -0 0 0 1:1 8:1 38:1 41:1 42:1 51:1 119:1 312:1 315:1 438:1 449:1 589:1 591:1 723:1 
-0.2565898088141514 -0 -0 -0 -0.2249433220784106 -0 -0 0 0 1:1 8:1 38:1 41:1 42:1 54:1 119:1 312:1 315:1 445:1 449:1 573:1 575:1 707:1 
-0 -0 -0 -0 -0 -0 -0 0.2012036206438986 0 1:1 8:1 14:1 26:1 38:1 59:1 100:1 119:1 142:1 312:1 315:1 319:1 436:1 449:1 653:1 
-0 -0 -0.04131608612395952 -0 -0 -0 -0 0 0 2:1 4:1 8:1 12:1 27:1 33:1 36:1 44:1 152:1 322:1 323:1 434:1 491:1 620:1 
-0 -0 -0 -0.1771639874194889 -0 -0 -0 0 0 2:1 8:1 14:1 35:1 36:1 44:1 54:1 68:1 317:1 490:1 521:1 573:1 575:1 691:1 
-0 -0.05291347972942861 -0 -0 -0 -0 -0 0.1185077844023856 0 1:1 6:1 8:1 12:1 17:1 19:1 83:1 84:1 103:1 140:1 188:1 475:1 557:1 1023:1 
-0 -0 -0 -0.1777586319258632 -0 -0 -0 0 0 1:1 2:1 4:1 8:1 12:1 17:1 19:1 23:1 27:1 46:1 71:1 73:1 475:1 557:1 855:1 
-0 -0 -0 -0.06760612413050836 -0 -0 -0 0 0 1:1 8:1 12:1 17:1 19:1 41:1 42:1 152:1 322:1 323:1 438:1 475:1 557:1 638:1 
-0 -0 -0 -0.4075884531157867 -0 -0 -0 0 0 1:1 8:1 12:1 17:1 19:1 41:1 42:1 122:1 329:1 330:1 445:1 475:1 557:1 705:1 
-0.1366593452847567 -0 -0 -0 -0 -0 -0 0 0 1:1 6:1 8:1 16:1 19:1 20:1 25:1 55:1 112:1 154:1 276:1 336:1 475:1 707:1 
-0 -0 -0 -0.2329372845607655 -0 -0 -0 0 0 1:1 2:1 4:1 8:1 12:1 19:1 20:1 25:1 27:1 33:1 42:1 336:1 434:1 475:1 609:1 
-0 -0 -0 -0 -0 -0 -0 0.1099570922818238 0 6:1 8:1 9:1 16:1 83:1 84:1 103:1 112:1 140:1 166:1 188:1 276:1 901:1 
-0.2330520739569563 -0.3897551713546303 -0 -0 -0 -0 -0 0.1750158758398407 0 1:1 3:1 6:1 8:1 83:1 84:1 97:1 103:1 140:1 160:1 188:1 282:1 522:1 923:1 
-0.06008893224367229 -0.112148593209224 -0 -0 -0 -0 -0 0 0 1:1 3:1 8:1 41:1 42:1 68:1 118:1 160:1 169:1 337:1 342:1 470:1 510:1 810:1 
-0 -0.1511905008906979 -0 -0 -0 -0 -0 0 0 1:1 2:1 3:1 4:1 8:1 36:1 53:1 68:1 97:1 118:1 160:1 378:1 470:1 513:1 572:1 
-0.1000227014044551 -0 -0 -0 -0 -0 -0 0 0 1:1 3:1 4:1 7:1 11:1 12:1 68:1 79:1 118:1 160:1 219:1 223:1 442:1 470:1 946:1 
-0 -0.05341563428887569 -0 -0 -0 -0 -0 0 0 1:1 2:1 3:1 5:1 52:1 68:1 76:1 104:1 112:1 118:1 160:1 190:1 470:1 502:1 901:1 
-0.08279666394149816 -0 -0 -0 -0 -0 -0 0 0.1286532264457527 6:1 8:1 10:1 32:1 38:1 42:1 60:1 103:1 116:1 154:1 215:1 431:1 441:1 634:1 
-0 -0 -0 -0.1423197002330584 -0 -0 -0 0 0 2:1 4:1 8:1 10:1 32:1 38:1 42:1 60:1 68:1 118:1 175:1 431:1 441:1 470:1 661:1 
-0 -0.07772163206126914 -0.2011227909069536 -0 -0 -0 -0 0.1239078153259299 0 2:1 4:1 8:1 10:1 12:1 27:1 33:1 37:1 38:1 55:1 106:1 434:1 441:1 484:1 624:1 
-0 -0 -0 -0.03449534645561869 -0 -0 -0 0 0 2:1 4:1 8:1 10:1 37:1 38:1 42:1 53:1 97:1 106:1 378:1 441:1 484:1 513:1 619:1 
-0 -0.2670620253850606 -0 -0 -0 -0 -0 0 0 1:1 2:1 3:1 8:1 12:1 28:1 33:1 39:1 49:1 75:1 78:1 291:1 434:1 527:1 785:1 
-0.4225067697239563 -0.05514256161118399 -0 -0 -0 -0 -0 0 0.1410260884409627 1:1 3:1 6:1 8:1 12:1 28:1 33:1 42:1 103:1 116:1 154:1 215:1 434:1 655:1 
-0 -0 -0 -0 -0 -0 -0 0 0.1440055577610163 6:1 8:1 44:1 77:1 83:1 103:1 140:1 169:1 188:1 337:1 342:1 506:1 987:1 
-0 -0 -0 -0 -0 -0 -0 0 0.2740905751655661 6:1 8:1 15:1 20:1 44:1 59:1 116:1 154:1 169:1 337:1 342:1 506:1 667:1 
-0 -0 -0 -0 -0 -0 -0 0 0.05799567805359465 2:1 8:1 20:1 21:1 25:1 42:1 44:1 169:1 336:1 337:1 342:1 492:1 506:1 576:1 
-0 -0 -0 -0 -0 -0 -0 0 0.1270098372782956 2:1 4:1 8:1 42:1 44:1 68:1 118:1 169:1 175:1 337:1 342:1 470:1 506:1 810:1 
-0 -0 -0 -0.1400540328703226 -0 -0 -0 0.1189905616436496 0 2:1 4:1 8:1 20:1 23:1 27:1 44:1 55:1 169:1 337:1 342:1 506:1 543:1 707:1 
-0 -0.2137239829593774 -0 -0 -0 -0 -0 0 0 1:1 2:1 3:1 4:1 8:1 23:1 27:1 53:1 59:1 97:1 165:1 269:1 378:1 507:1 834:1 
-0 -0.01453122550431788 -0 -0 -0 -0 -0 0 0 1:1 2:1 3:1 8:1 39:1 53:1 56:1 75:1 78:1 97:1 291:1 378:1 507:1 527:1 555:1 
-0.5436073797509665 -0 -0 -0 -0 -0 -0 0 0 1:1 3:1 6:1 8:1 36:1 53:1 97:1 103:1 116:1 154:1 215:1 378:1 507:1 576:1 
-0 -0.1948232645877637 -0 -0 -0 -0 -0 0 0 1:1 2:1 3:1 4:1 8:1 36:1 53:1 68:1 97:1 118:1 175:1 378:1 470:1 507:1 572:1 
-0.008957245084469961 -0 -0 -0 -0 -0 -0 0 0 1:1 3:1 8:1 11:1 37:1 39:1 42:1 53:1 97:1 106:1 378:1 456:1 484:1 507:1 619:1 
-0 -0.2208581537456993 -0 -0 -0 -0 -0 0 0 1:1 3:1 8:1 11:1 34:1 39:1 42:1 68:1 91:1 320:1 324:1 507:1 535:1 570:1 604:1 
-0 -0 -0 -0 -0 -0 -0 0.2294779114946582 0 6:1 8:1 10:1 34:1 38:1 83:1 94:1 103:1 140:1 188:1 320:1 324:1 466:1 984:1 
-0 -0 -0.1036151230846014 -0.2153225520562063 -0 -0 -0 0 0 2:1 4:1 8:1 10:1 34:1 38:1 42:1 68:1 91:1 320:1 324:1 466:1 513:1 570:1 604:1 
-0 -0 -0 -0 -0 -0 -0 0.1223300258508375 0 6:1 10:1 16:1 18:1 24:1 26:1 38:1 50:1 300:1 453:1 466:1 550:1 601:1 602:1 
-0 -0 -0 -0 -0 -0 -0 0.8250620241078233 0 2:1 4:1 10:1 18:1 24:1 38:1 50:1 58:1 304:1 307:1 466:1 532:1 572:1 601:1 602:1 
-0 -0 -0 -0 -0 -0 -0 0.08075393369242166 0 2:1 4:1 7:1 10:1 18:1 38:1 59:1 88:1 267:1 268:1 466:1 555:1 559:1 601:1 602:1 
-0 -0 -0 -0 -0 -0 -0 0.1378639092799483 0 6:1 7:1 10:1 18:1 30:1 38:1 59:1 259:1 261:1 466:1 476:1 601:1 602:1 646:1 
-0 -0 -0 -0 -0 -0 -0 0.005723994724324361 0 2:1 4:1 7:1 10:1 18:1 38:1 54:1 64:1 70:1 110:1 145:1 466:1 601:1 602:1 667:1 
-0 -0 -0 -0 -0 -0 -0 1 0 2:1 10:1 14:1 18:1 38:1 72:1 161:1 162:1 163:1 164:1 466:1 488:1 601:1 602:1 735:1 
-0 -0 -0 -0 -0 -0 -0 0.03891421762365582 0 6:1 8:1 13:1 26:1 83:1 100:1 103:1 120:1 140:1 141:1 188:1 319:1 481:1 1052:1 
-0 -0 -0.05748254258342859 -0 -0 -0 -0 0 0 2:1 8:1 13:1 14:1 23:1 26:1 27:1 46:1 82:1 94:1 100:1 141:1 319:1 481:1 990:1 
-0 -0 -0 -0 -0 -0 -0 0 0.04459502646602265 6:1 8:1 13:1 26:1 49:1 100:1 103:1 116:1 141:1 154:1 215:1 319:1 481:1 708:1 
-0 -0 -0 -0 -0 -0 -0 0.04966347896832667 0 1:1 2:1 8:1 13:1 14:1 23:1 27:1 46:1 70:1 82:1 100:1 102:1 314:1 478:1 1043:1 
-0 -0.1555474065904869 -0 -0 -0 -0 -0 0 0 1:1 2:1 4:1 8:1 13:1 23:1 27:1 46:1 70:1 71:1 94:1 100:1 314:1 478:1 977:1 
-0 -0 -0 -0 -0 -0 -0 0.02739283525780903 0 1:1 6:1 8:1 13:1 15:1 18:1 70:1 77:1 100:1 245:1 314:1 474:1 478:1 854:1 
-0 -0 -0 -0 -0 -0 -0 0.02643302982031229 0 1:1 2:1 4:1 8:1 13:1 18:1 70:1 71:1 84:1 100:1 118:1 175:1 314:1 478:1 906:1 
-0 -0 -0 -0 -0 -0 -0 0.1273786132128499 0 1:1 2:1 4:1 8:1 13:1 23:1 27:1 70:1 76:1 100:1 165:1 269:1 314:1 478:1 795:1 
-0 -0.5228841087246359 -0 -0 -0 -0 -0 0 0 1:1 2:1 8:1 13:1 39:1 70:1 75:1 78:1 79:1 100:1 291:1 314:1 478:1 527:1 914:1 
-0 -0 -0 -0 -0 -0 -0 0.1957032599847426 0 1:1 8:1 13:1 14:1 29:1 36:1 70:1 100:1 113:1 142:1 314:1 436:1 478:1 599:1 740:1 
-0.3412263727210288 -0 -0 -0 -0 -0 -0 0 0 1:1 6:1 13:1 16:1 24:1 26:1 55:1 113:1 289:1 300:1 453:1 478:1 626:1 638:1 
-0 -0.2079365991238573 -0 -0 -0 -0 -0 0.1298321724935695 0 1:1 2:1 13:1 17:1 21:1 24:1 53:1 55:1 113:1 289:1 290:1 478:1 489:1 626:1 686:1 
-0 -0 -0 -0 -0 -0 -0 0.4117117530428004 0 1:1 2:1 13:1 14:1 40:1 43:1 113:1 151:1 279:1 280:1 289:1 478:1 571:1 626:1 630:1 
-0 -0.4009207376682972 -0 -0 -0 -0 -0 0 0 1:1 2:1 3:1 4:1 23:1 24:1 27:1 46:1 58:1 71:1 94:1 304:1 307:1 540:1 988:1 
-0 -0.1321845224035459 -0 -0 -0 -0 -0 0 0 1:1 2:1 3:1 4:1 23:1 24:1 27:1 58:1 76:1 165:1 269:1 304:1 307:1 540:1 849:1 
-0 -0.2019115368658233 -0 -0 -0 -0 -0 0 0 1:1 2:1 3:1 24:1 39:1 58:1 75:1 78:1 79:1 291:1 304:1 307:1 527:1 540:1 668:1 
-0.2501486783504867 -0 -0 -0 -0 -0 -0 0 0 1:1 3:1 6:1 24:1 58:1 59:1 103:1 116:1 154:1 215:1 304:1 307:1 540:1 746:1 
-0.268347964568962 -0 -0 -0 -0 -0 -0 0 0 1:1 2:1 3:1 4:1 7:1 22:1 45:1 51:1 256:1 257:1 458:1 540:1 653:1 676:1 683:1 
-0.3118200370541525 -0 -0 -0 -0 -0 -0 0 0 1:1 3:1 4:1 7:1 11:1 12:1 22:1 50:1 219:1 223:1 442:1 540:1 635:1 676:1 683:1 
-0 -0.3560301453563178 -0 -0 -0 -0 -0 0 0 1:1 6:1 17:1 19:1 24:1 53:1 83:1 103:1 115:1 140:1 188:1 290:1 463:1 960:1 
-0 -0 -0 -0.1978470234119888 -0 -0 -0 0 0 1:1 2:1 4:1 17:1 19:1 23:1 24:1 27:1 46:1 53:1 71:1 94:1 290:1 463:1 1053:1 
-0 -0 -0 -0.0488859396073136 -0 -0 -0 0 0 1:1 2:1 4:1 17:1 19:1 22:1 24:1 53:1 68:1 77:1 236:1 290:1 463:1 528:1 1078:1 
-0 -0 -0 -0.3106941391827416 -0 -0 -0 0 0 1:1 2:1 14:1 17:1 19:1 24:1 35:1 53:1 67:1 68:1 290:1 317:1 463:1 521:1 731:1 
-0 -0 -0 -0 -0 -0 -0 0.07489796810100337 0 1:1 2:1 14:1 17:1 19:1 24:1 53:1 55:1 113:1 289:1 290:1 463:1 520:1 626:1 686:1 
-0.09396597342512003 -0 -0 -0 -0 -0 -0 0 0 1:1 6:1 17:1 19:1 24:1 29:1 53:1 55:1 215:1 290:1 453:1 463:1 639:1 650:1 
-0 -0.2750826072507271 -0 -0 -0 -0 -0 0 0 1:1 3:1 6:1 12:1 24:1 83:1 96:1 103:1 140:1 188:1 266:1 283:1 444:1 1088:1 
-0 -0 -0 -0.05782850014151146 -0 -0 -0 0 0 1:1 2:1 3:1 12:1 14:1 23:1 24:1 27:1 46:1 82:1 96:1 99:1 283:1 444:1 950:1 
-0 -0 -0 -0.0325662471828652 -0 -0 -0 0 0 1:1 2:1 3:1 4:1 12:1 23:1 24:1 27:1 77:1 96:1 165:1 269:1 283:1 444:1 890:1 
-0 -0 -0 -0.5286956414405934 -0 -0 -0 0 0 1:1 2:1 3:1 12:1 14:1 24:1 35:1 68:1 79:1 96:1 283:1 317:1 444:1 521:1 864:1 
-0 -0.05320881241026778 -0 -0 -0 -0 -0 0 0 1:1 2:1 3:1 14:1 20:1 42:1 43:1 151:1 279:1 280:1 444:1 571:1 584:1 634:1 687:1 
-0 -0.3446510721356479 -0 -0 -0 -0 -0 0 0 1:1 2:1 13:1 14:1 23:1 27:1 43:1 46:1 82:1 115:1 151:1 279:1 280:1 514:1 998:1 
-0 -0.5219509481091517 -0 -0 -0 -0 -0 0.1593583417419902 0 1:1 2:1 4:1 13:1 23:1 27:1 43:1 90:1 151:1 165:1 269:1 279:1 280:1 514:1 1078:1 
-0.3043526109265978 -0 -0 -0 -0 -0 -0 0 0 1:1 13:1 41:1 43:1 73:1 127:1 151:1 279:1 280:1 510:1 514:1 558:1 562:1 873:1 
-0.5817673822506007 -0.03062970112884023 -0 -0 -0 -0 -0 0 0 1:1 2:1 4:1 13:1 20:1 42:1 43:1 151:1 279:1 280:1 495:1 514:1 584:1 634:1 687:1 
-1 -0 -0 -0 -0 -0 -0 0 0 1:1 2:1 4:1 7:1 13:1 55:1 88:1 200:1 267:1 268:1 514:1 559:1 650:1 791:1 805:1 
-0.9087539134725978 -0 -0 -0 -0 -0 -0 0 0 1:1 6:1 7:1 13:1 30:1 55:1 200:1 259:1 261:1 476:1 514:1 627:1 791:1 805:1 
-0.8469296965524998 -0 -0 -0 -0 -0 -0 0 0 1:1 12:1 13:1 16:1 31:1 40:1 41:1 200:1 205:1 448:1 514:1 750:1 791:1 805:1 
-0.1825931548815038 -0 -0 -0 -0 -0 -0 0 0 1:1 5:1 11:1 13:1 32:1 39:1 40:1 70:1 195:1 200:1 437:1 514:1 791:1 805:1 909:1 
-0.1462061514283389 -0 -0 -0 -0 -0 -0 0 0 1:1 2:1 5:1 13:1 40:1 52:1 104:1 112:1 190:1 200:1 502:1 514:1 665:1 791:1 805:1 
-0 -0.1337211441117555 -0 -0 -0 -0 -0 0 0 1:1 3:1 6:1 7:1 83:1 88:1 103:1 121:1 140:1 188:1 267:1 268:1 450:1 995:1 
-0 -0 -0 -0.2509366964425329 -0 -0 -0 0 0 1:1 2:1 3:1 4:1 7:1 22:1 40:1 88:1 267:1 268:1 450:1 532:1 581:1 676:1 683:1 
-0.7430038269386698 -0 -0 -0 -0 -0 -0 0 0 1:1 2:1 3:1 7:1 14:1 55:1 88:1 200:1 267:1 268:1 450:1 571:1 650:1 791:1 805:1 
-1 -0.07031734053716991 -0 -0 -0 -0 -0 0 0 1:1 3:1 6:1 7:1 30:1 55:1 259:1 261:1 450:1 476:1 624:1 717:1 828:1 837:1 
-0.7835333560980208 -0 -0 -0 -0 -0 -0 0 0 1:1 3:1 12:1 16:1 31:1 40:1 41:1 205:1 448:1 450:1 630:1 717:1 828:1 837:1 
-0.1584159458865753 -0 -0 -0 -0 -0 -0 0 0 1:1 3:1 5:1 11:1 32:1 39:1 40:1 70:1 195:1 437:1 450:1 578:1 717:1 828:1 837:1 
-0.7304670871040815 -0 -0 -0 -0 -0 -0 0 0 1:1 2:1 3:1 5:1 40:1 52:1 104:1 112:1 190:1 450:1 502:1 632:1 717:1 828:1 837:1 
-0.1481125701412293 -0 -0 -0 -0 -0 -0 0 0 1:1 2:1 3:1 5:1 40:1 57:1 62:1 85:1 182:1 450:1 501:1 700:1 717:1 828:1 837:1 
-0.7227515461451878 -0 -0 -0 -0 -0 -0 0 0 1:1 2:1 3:1 5:1 17:1 21:1 45:1 51:1 167:1 450:1 497:1 717:1 733:1 828:1 837:1 
-0.1996905500290733 -0 -0 -0 -0 -0 -0 0 0 1:1 2:1 3:1 14:1 45:1 161:1 162:1 163:1 164:1 450:1 488:1 635:1 717:1 828:1 837:1 
-0.2377841048868322 -0 -0 -0 -0 -0 -0 0 0 2:1 4:1 7:1 9:1 35:1 42:1 51:1 256:1 257:1 458:1 464:1 686:1 753:1 756:1 
-0.02919403931681107 -0 -0 -0 -0 -0 -0 0 0 2:1 4:1 7:1 9:1 35:1 42:1 54:1 70:1 110:1 145:1 464:1 605:1 753:1 756:1 
-0.02652285098253113 -0 -0 -0 -0 -0 -0 0 0 4:1 7:1 9:1 11:1 26:1 35:1 42:1 240:1 243:1 440:1 464:1 753:1 756:1 810:1 
-1 -0.08823928586672262 -0 -0 -0 -0 -0 0 0 1:1 2:1 3:1 4:1 7:1 54:1 55:1 74:1 152:1 252:1 443:1 516:1 723:1 786:1 808:1 
-0.140737054450116 -0 -0 -0.0657131656962472 -0 -0 -0 0 0 1:1 2:1 3:1 4:1 7:1 54:1 55:1 74:1 152:1 252:1 458:1 515:1 723:1 786:1 808:1 
-0.6641727610903392 -0 -0 -0 -0 -0 -0 0 0 1:1 2:1 3:1 4:1 7:1 54:1 55:1 70:1 107:1 110:1 122:1 145:1 515:1 638:1 831:1 
-0.1107595447961099 -0 -0 -0 -0 -0 -0 0 0 1:1 3:1 6:1 7:1 54:1 70:1 83:1 103:1 110:1 140:1 144:1 188:1 197:1 1083:1 
-0.1773362426992395 -0 -0 -0 -0 -0 -0 0 0 1:1 3:1 6:1 7:1 54:1 70:1 72:1 103:1 110:1 116:1 144:1 154:1 215:1 922:1 
-0 -0.08106586750709233 -0 -0 -0 -0 -0 0 0 1:1 2:1 3:1 4:1 7:1 54:1 55:1 70:1 110:1 144:1 152:1 458:1 650:1 786:1 808:1 
-0 -0.178159434244092 -0 -0 -0 -0 -0 0 0 1:1 2:1 3:1 4:1 7:1 54:1 55:1 70:1 107:1 110:1 122:1 144:1 443:1 638:1 831:1 
-1 -0 -0 -0 -0 -0 -0 0 0 1:1 3:1 4:1 7:1 11:1 26:1 55:1 122:1 144:1 240:1 243:1 289:1 311:1 440:1 707:1 
-0.1544113433848074 -0 -0 -0 -0 -0 -0 0 0 1:1 3:1 4:1 7:1 11:1 12:1 42:1 122:1 144:1 219:1 223:1 289:1 311:1 442:1 691:1 
-0 -0.2187086772971878 -0 -0 -0 -0 -0 0 0 1:1 2:1 3:1 5:1 36:1 52:1 104:1 112:1 122:1 144:1 190:1 289:1 311:1 502:1 706:1 
-0 -0 -0.06472136031440395 -0 -0 -0 -0 0 0 2:1 3:1 4:1 7:1 10:1 26:1 55:1 152:1 240:1 243:1 458:1 526:1 661:1 786:1 808:1 
-0.9253053625486338 -0 -0 -0 -0 -0 -0 0 0 3:1 4:1 7:1 10:1 11:1 29:1 51:1 55:1 232:1 234:1 439:1 526:1 705:1 878:1 886:1 
-0.4676182138526644 -0 -0 -0.06751701665599827 -0 -0 -0 0 0 3:1 4:1 7:1 10:1 11:1 29:1 51:1 55:1 232:1 234:1 440:1 523:1 705:1 878:1 886:1 
-0.1906127636338701 -0 -0 -0 -0 -0 -0 0 0 3:1 4:1 7:1 10:1 11:1 12:1 42:1 152:1 219:1 223:1 442:1 523:1 705:1 927:1 928:1 
-0.301765653930601 -0 -0 -0.1509598940367071 -0 -0 -0 0 0 3:1 4:1 7:1 10:1 11:1 12:1 42:1 152:1 219:1 223:1 439:1 517:1 705:1 927:1 928:1 
-0 -0.1802618801611429 -0 -0 -0 -0 -0 0 0 1:1 2:1 3:1 4:1 23:1 27:1 30:1 31:1 96:1 102:1 165:1 214:1 269:1 465:1 1033:1 
-0 -0.4265953485031693 -0 -0 -0 -0 -0 0 0 1:1 2:1 3:1 30:1 31:1 39:1 75:1 78:1 96:1 114:1 214:1 291:1 465:1 527:1 1072:1 
-0 -0.02479816998742427 -0 -0 -0 -0 -0 0 0 1:1 2:1 3:1 4:1 30:1 31:1 36:1 96:1 122:1 145:1 214:1 289:1 311:1 465:1 604:1 
-0 -0.1502363488241466 -0 -0 -0 -0 -0 0 0 1:1 2:1 3:1 5:1 35:1 55:1 57:1 62:1 85:1 182:1 465:1 501:1 584:1 651:1 1032:1 
-0 -0.0676954422856671 -0 -0 -0 -0 -0 0 0 1:1 2:1 3:1 5:1 17:1 21:1 35:1 55:1 58:1 171:1 465:1 494:1 584:1 586:1 1032:1 
-0 -0.2329941265860182 -0 -0 -0 -0 -0 0 0 1:1 2:1 3:1 14:1 35:1 42:1 161:1 162:1 163:1 164:1 465:1 488:1 584:1 678:1 1032:1 
-0 -0 -0 -0 -0 -0 -0 0 0.08262401038878923 6:1 12:1 16:1 31:1 44:1 76:1 103:1 116:1 154:1 205:1 215:1 483:1 841:1 
-0 -0 -0 -0.06007946997599457 -0 -0 -0 0 0 2:1 4:1 5:1 10:1 22:1 32:1 38:1 49:1 70:1 195:1 447:1 532:1 676:1 683:1 704:1 
-0 -0.1762660900263914 -0 -0 -0 -0 -0 0 0 1:1 5:1 6:1 47:1 83:1 103:1 104:1 112:1 140:1 188:1 190:1 303:1 546:1 1098:1 
-0 -0 -0 -0.3014385626144053 -0 -0 -0 0 0 1:1 2:1 4:1 5:1 22:1 47:1 49:1 104:1 112:1 190:1 532:1 546:1 676:1 683:1 834:1 
-0 -0 -0 -0 -0 -0 -0 0.04224584639113085 0 1:1 5:1 15:1 20:1 41:1 47:1 55:1 104:1 112:1 190:1 448:1 546:1 624:1 1039:1 
-0 -0 -0 -0 -0 -0 -0 0.1004165722640256 0 1:1 5:1 11:1 39:1 47:1 55:1 104:1 106:1 112:1 190:1 289:1 437:1 546:1 707:1 1062:1 
-0.1850184000779272 -0 -0 -0 -0 -0 -0 0 0 1:1 4:1 5:1 11:1 20:1 42:1 57:1 61:1 85:1 182:1 442:1 472:1 655:1 962:1 969:1 
-0.3037575050773844 -0 -0 -0 -0 -0 -0 0 0 1:1 2:1 4:1 5:1 35:1 55:1 57:1 61:1 85:1 182:1 472:1 533:1 584:1 651:1 1032:1 
-0.1684788217134759 -0 -0 -0.2150816771756884 -0 -0 -0 0 0 1:1 2:1 5:1 17:1 21:1 46:1 55:1 58:1 61:1 66:1 171:1 472:1 494:1 705:1 1131:1 
-0.5409270001485682 -0 -0 -0.3640573617173581 -0 -0 -0 0 0 1:1 2:1 5:1 17:1 19:1 46:1 55:1 58:1 62:1 66:1 171:1 454:1 501:1 705:1 1131:1 
-0 -0 -0 -0 -0 -0 -0 0.01068571154824016 0 1:1 5:1 6:1 17:1 19:1 51:1 83:1 103:1 140:1 167:1 188:1 332:1 459:1 1046:1 
-0 -0 -0 -0.04818784118101176 -0 -0 -0 0 0 1:1 2:1 4:1 5:1 17:1 19:1 22:1 51:1 56:1 167:1 459:1 532:1 676:1 683:1 699:1 
-0.07919542098750411 -0 -0 -0 -0 -0 -0 0 0 1:1 2:1 5:1 14:1 17:1 19:1 45:1 51:1 167:1 200:1 459:1 571:1 746:1 791:1 805:1 
-0.2682149111513666 -0 -0 -0 -0 -0 -0 0 0 1:1 2:1 4:1 5:1 17:1 19:1 35:1 42:1 51:1 167:1 459:1 533:1 550:1 584:1 1032:1 
-0 -0 -0 -0 -0 -0 -0 0.06261977497805774 0 1:1 2:1 13:1 14:1 23:1 27:1 46:1 82:1 161:1 162:1 163:1 164:1 197:1 480:1 1146:1 
-0 -0 -0 -0 -0 -0 -0 0.07937028553520635 0 1:1 2:1 4:1 13:1 23:1 27:1 120:1 161:1 162:1 163:1 164:1 165:1 269:1 480:1 1003:1 
-0 -0 -0 -0 -0 -0 -0 0.3315827468368121 0 1:1 6:1 13:1 84:1 103:1 116:1 154:1 161:1 162:1 163:1 164:1 215:1 480:1 836:1 
-0 -0 -0 -0 -0 -0 -0 0.2002931093344398 0 1:1 2:1 13:1 14:1 56:1 113:1 161:1 162:1 163:1 164:1 289:1 480:1 520:1 626:1 806:1 
-0 -0 -0 -0.1050768802981034 -0 -0 -0 0 0 1:1 2:1 4:1 13:1 22:1 56:1 161:1 162:1 163:1 164:1 480:1 532:1 676:1 683:1 736:1 
-0 -0 -0 -0 -0 -0 -0 0.1064529193023727 0 1:1 2:1 13:1 21:1 25:1 55:1 152:1 161:1 162:1 163:1 164:1 480:1 497:1 619:1 1235:1 
-1 -1 -1 -1 -0.2362920049373563 -0.3773116530941573 -0.09493068412627396 -1 0.03739874132815155 1:1 6:1 8:1 13:1 84:1 228:1 477:1 556:1 560:1 563:1 600:1 613:1 778:1 787:1 
-1 -1 -1 -1 -0.3369113592216267 -0.1273498302510284 -0 -1 0.2097883242658805 6:1 8:1 9:1 84:1 556:1 560:1 563:1 593:1 594:1 597:1 778:1 797:1 971:1 
-1 -1 -1 -1 -0.288952315161695 -0.6912051883213204 -0.1325064404302799 -1 0.05355544944138093 1:1 2:1 3:1 4:1 22:1 36:1 74:1 86:1 105:1 113:1 172:1 686:1 713:1 716:1 782:1 
-1 -1 -1 -1 -0.2552957758477098 -0.4934039862303907 -0.07337481040249332 -1 0.03935946153785042 1:1 2:1 3:1 4:1 23:1 27:1 46:1 55:1 58:1 71:1 93:1 174:1 580:1 705:1 1048:1 
-1 -1 -1 -1 -0.2574459293472727 -0.3087948116786797 -0.1525263773997685 -1 0.04211132208902294 1:1 2:1 4:1 8:1 13:1 23:1 27:1 55:1 101:1 165:1 196:1 269:1 467:1 707:1 737:1 
-1 -1 -1 -1 -0.3566547303945058 -0.3009580088977208 -0.03797098263562424 -1 0.2628217493133745 1:1 6:1 8:1 13:1 30:1 72:1 83:1 97:1 103:1 140:1 188:1 537:1 633:1 854:1 
-1 -1 -1 -1 -0.1046234553428731 -0.06464978697323683 -0.09330535083469216 -1 0.02824281656318829 2:1 8:1 10:1 14:1 18:1 38:1 50:1 70:1 100:1 314:1 466:1 520:1 601:1 602:1 651:1 
-1 -1 -1 -1 -0.09661532159028741 -0.4019564389528186 -0.1529216037313907 -1 0 1:1 2:1 4:1 13:1 24:1 55:1 58:1 113:1 289:1 304:1 307:1 478:1 532:1 626:1 691:1 
-1 -1 -1 -1 -0 -0.2970855521494606 -0.1290427611634732 -1 0 1:1 6:1 13:1 83:1 103:1 140:1 161:1 162:1 163:1 164:1 188:1 332:1 480:1 1164:1 
-1 -1 -1 -1 -0.6144323632480175 -0.2903371251186721 -0.0326384860230465 -1 0.18687852746228 1:1 2:1 14:1 42:1 47:1 65:1 103:1 161:1 162:1 163:1 164:1 488:1 546:1 706:1 1186:1 
-1 -1 -1 -1 -0.3739008757613643 -0.3134551272797087 -0 -1 0.1081472607574174 8:1 10:1 14:1 18:1 26:1 38:1 40:1 100:1 142:1 319:1 436:1 466:1 601:1 602:1 624:1 
-1 -1 -1 -1 -0.07887586914729139 -0.333492491052806 -0.1007825032529576 -1 0.03169634724145343 2:1 10:1 14:1 18:1 38:1 43:1 59:1 151:1 279:1 280:1 466:1 571:1 601:1 602:1 653:1 
-1 -1 -1 -1 -1 -1 -1 -1 -1 6:1 8:1 42:1 44:1 103:1 116:1 154:1 169:1 215:1 337:1 342:1 506:1 609:1 
